{"b": 3940.199999997512, "w": [[-0.03693525483614367, 0.008138351495979718, 0.013954758286849639, -0.029967566832987624, 0.056585662970974324, -0.05503453914548279, 0.0014710458009865382, -0.055893074057244835, -0.013696433147163414, 0.03632632783302099, -0.004805447857172081, -0.03486917380180901, -0.04825932676864856, 0.022878660083173255, 0.01739783290197397, 0.03569673090531421, -0.04563983589774461, 0.003375775486012353, 0.04946660082828537, -0.03710327148736609, -0.04840054128381558, 0.001822499935989326, 0.051945169608428196, 0.03465821322445675, 0.014207861662891605, -0.04330767748843281, 0.004505366151012838, 0.007244470443438539, -0.0011397347760005241, -0.04897420144471555, -0.053591818179313556, 0.03482009299539475, 0.017408880913262925, 0.04084623937333928, 0.008978831359965592, -0.020351519092907645, 0.009156239667596378, -0.015339312305182033, -0.015515370103827614, 0.08473549501605167, 0.08424965641135651, -0.017521628073473766, 0.028111506888559998, 0.18390536642805766, 0.4280341893647836, 0.19017323987789586, 0.05817975418531156, -0.0333676495408622, -0.02885740712861963, 0.04903314207486999, -0.04236220062041092, 0.05563983085183272, 0.05997584890303949, 0.05767148147898171, -0.044086884870281375, 0.027348524950820796, -0.008390503337878587, -0.04992601441151128, 0.03066756063297102, 0.035694850301415934, 0.0014582604052359865, 0.03072339423093397, -0.13156773711696967, -0.23220466721693406, -0.07271689768554566, -0.06072968258555788, -0.06715443630471017, -0.3028679172601727, -0.2613183516611288, -0.37321876982367236, -1.076548497278272, -1.706820363089129, -1.7289228985198342, -1.1624390805031757, -0.5465692117870024, -0.35642189904263033, -0.5627938830921477, -0.3361726421271393, -0.011080125337310481, -0.04911773456913601, -0.0401852813218278, -0.021927957811300303, -0.02242749522433654, -0.047235330375258164, 0.042649176662438476, 0.05152771162991898, 0.027770589937999704, -0.05360756158636931, -0.08059752849351541, -0.42731313600477244, -0.6983237848184743, -0.991199628573892, -0.3392697399221285, -0.8081949847728377, -0.7874836214336752, -0.5783031243640752, -0.9671076492035717, 0.38121102457999667, 0.9821664959262532, 0.09645201282603791, -0.5396735640762225, -0.192786085574126, -0.6669804685791287, -0.7606983251137878, -0.3313732906702332, -0.6636714815066441, -0.08560023434901166, -0.08598116861464059, 0.041996353264963045, 0.08284900320296959, -0.04337688725575037, 0.036315912910043976, 0.056440773151937434, -0.014535018200793053, 0.04440707859542288, -0.06234933686286123, -0.1263529567979637, -0.6684547795875098, -1.074673049887018, -0.676174853998228, 0.5097930272577421, 0.5147695592506447, 0.48558910499296704, 1.1971952343006282, 0.0691208245479222, 0.3407529231145412, -1.063060292457154, 0.32331349135713255, -0.5529689936376468, 0.09907208469175735, -0.3557447130027883, -0.4967205087200814, -0.5029415169930922, -1.229968002023818, -0.26597718408122695, -1.0952399702119437, -1.1142089913175979, -0.18261765470512048, 0.05712283823827455, -0.010618099169095778, -0.012901256705968638, 0.001747878749535442, 0.030135405371654725, 0.015907184062798955, -0.18059344508857844, -1.0329257485070036, -0.6886562790313915, -0.1082895458767702, -0.09273084795661823, -0.3218854563792605, 1.3058021707488803, 1.1607061039378677, -0.7402917303616916, 1.0237182405610061, 0.9184260200300128, -0.3197638858625847, 0.8405971687445699, 0.8228596543548485, 0.6554509862337257, 0.6456606599821015, -0.12528706837348336, -0.3036478077726503, -0.4451468779717117, -1.8162681585588416, -1.1983072961128722, -0.8007377375284164, -0.20667649258369797, -0.14029480009866124, 0.04053885838925088, -0.02729274519358907, -0.015215182068530939, 0.049813294969163216, -0.3853334783407463, -0.5525495856228017, 0.2660039906626006, 1.2983237629497906, 0.07889092257264449, -1.9856043434878716, 0.17815177259763929, -0.5244681190982228, -0.3337367622096012, 0.49900223554589845, 1.039517853498463, 0.7492288540663665, 0.8312397928695716, 0.6229556371179988, 2.5605103516000653, 0.29465698078320934, -0.7806752363851763, 0.8812646226977484, 1.304162462445317, 0.16938268911299528, -1.3752191265485936, -2.3483792932104306, -1.1611909585070532, -0.384047434610037, -0.002266275357299577, 0.023920334553848246, 0.02742126330868032, -0.042811916858678786, -0.7178135710545056, -0.2471128143772236, 1.1724043137436022, 0.9755654312501256, -1.2279414535979645, 0.6835576428028514, 1.0825362099279747, 1.1411696810188545, -0.8640028187775209, 0.6552951397388833, -0.21026877732799684, 0.131400948217809, -0.7083603163474292, 1.9600992241364286, 1.3926040331696423, 0.8158911512953999, -0.14179118471510616, -0.3738993179444432, -0.3987703122758102, 1.3524187958521678, -0.610908675740461, -1.6652113570540046, -1.1312469388996103, -0.0806639756184119, 0.11086060796934848, -0.058529283694425664, 0.1056120990784078, 0.0016333926834495582, -1.183987367837666, -0.9538958272784699, -0.1055977890095329, -0.6102630103713182, 0.8900097345606358, 1.292210202209227, -0.024135735652012213, -0.5709222361928008, 0.13512583744034434, -0.5728034595364767, 1.9501777818349069, 0.32557502430839125, 2.310331283440615, 0.9513708877434254, 1.0525943834369091, 0.003934844622158099, 0.9244023011406183, 0.6940304020215606, 1.3686835252804221, 2.8479514067164566, 0.8270362354906102, -2.458137734816392, -0.9616482337531973, -0.07813043360852423, -0.010349199784355674, -0.046089284985151656, 0.058845387756099335, 0.18603107888267414, -0.6626705157196497, -0.9065318371450127, -0.1705545173208934, -1.8721744843974346, -1.1961414656180351, 0.4960687597237104, 1.4526572551741859, -1.1986381178417225, -0.8065147247269757, 1.2038981890077838, 0.32732472895504683, -2.0817249579645347, 0.7907553003503064, 0.09397477463135608, 0.35981360542494767, 0.8363701540533106, 1.0307950817155853, -0.7672870740585657, -0.6323089740935952, 2.989638350850906, 2.736746201236278, -2.1818491088940157, -0.9902662422493598, -0.030545069838348725, 0.046423908957607424, 0.047219677051493214, 0.2449265658684527, 0.0048473501770005464, 0.02340082806315988, 0.8750492659363327, -0.04838780303138455, -0.6270733159720323, 0.417199005126682, 0.36912452741014756, -0.7014690492458894, 0.4524595922800083, -0.5598054276590878, 0.28730680082157, -0.541089786733959, -0.4899376632814961, 0.09222467063830232, 1.2778386210095587, 1.1164179065420867, -0.46398014021019507, 1.1081741899094162, 0.18198741831921972, 0.8269761531151538, 1.3645522012908236, 1.3955435907346565, -2.2179787178579566, -0.9744412041656827, -0.002962514834901994, -0.03854734449414993, 0.0976100208844204, -0.017443705181461204, 0.030150054872475768, -0.8278134710739997, -0.6912758814533854, -0.4689393348043241, 0.5141706964091433, 0.021866258266582464, -0.5502138487034751, -0.11832318683659629, 1.3769211382521709, -1.7423052033697943, 0.17282963168750948, -0.864078906718736, -1.4916571435492914, -1.9595489875202745, -0.20801116450334772, -1.9329395155762732, 0.1786408929309407, -0.23907727342670987, 2.7010622292276185, 0.8174276076396867, 1.57007827886342, 1.3754483978292429, -0.9926897532388569, -0.8872310352807727, -0.026630436322241484, -0.012160656733385039, -0.05535693953991226, 0.03902545322716357, -0.19654584405237366, -0.39087019547899143, 0.5226473275398856, 1.690200230050232, 0.14951737304213933, -0.7816666468818163, -1.102045885501867, -0.5437618319162908, -0.9031613031841123, 0.07917787937677971, -0.0663588109553234, -2.091321571966488, -3.4422498093906655, -2.359879049302019, 0.095629935824526, -0.16263884031448084, 1.1874475491882428, 0.08061884847378946, 1.0395506415983047, 0.8509396002995089, 1.8515089846038661, 2.4549169712349443, 0.0071813864553504775, -0.5466240398177592, 0.0007704565266514474, -0.030850037452318804, 0.04702389815456584, -0.03775343861637043, -0.19007058580002434, 0.8789878659023704, -0.3207887885970503, 1.8980342163758526, 0.8943332049084952, 0.3590150027677303, 0.04486809980708098, 0.3887377108805889, -0.6113977409291924, 0.18467323246553066, -0.5693665059202256, -3.068171061690318, -3.8539524872272484, -1.6989584096418195, -0.31697907470732173, 0.3317347292303313, -0.8839841846748759, -1.900589551526141, -1.1284880578277379, 0.14127493911040356, 1.5378322991023108, 2.3677700980319063, 0.18261665913098046, -0.13515215428025654, -0.08663400785142292, 0.026036674693544204, -0.023953433940040854, 0.004861635490495328, -0.5792139363681723, 0.3146031558696607, 1.0899637671765656, 0.2924074424315319, 2.341915493711209, 0.007334494214285475, 1.0390916626692073, -2.01757621141812, 0.5895814073353078, 1.6667563734827033, 0.20787881730774382, -3.872110626842876, -2.2479549400011503, -3.174203479057613, -0.7582400598590188, -0.4390564890892997, -0.7082324994997844, 1.273264310152856, 0.9150889895803809, 0.3585028866666112, 1.7709154981812065, 2.543262147067916, 0.26482393736729815, -0.2493087560563197, 0.03654836013148186, -0.02818246057124356, -0.050274584944189765, 0.015379489327591124, -0.47716367334041576, 0.644641966620018, 0.8636657748164156, -1.6963958714902483, 2.55919052007393, 1.737680648225968, 1.328321012548373, 0.4694714913820004, -0.4222226344875884, 1.537786872156741, -2.1943473402116216, -4.199923662501077, -1.9728648754516518, -1.4664378667640512, -0.15685388734490593, -0.25418903591430014, -0.5733647319731222, 0.9677811765367811, 0.3638303463606364, 0.9332093751823467, 1.8537081397864061, 1.6067084648905972, -0.19719919525929203, -0.35531774667637256, -0.03644734615520589, -0.023599697788332652, -0.014697013692849613, -0.12590201379907, -0.5233297395337545, 0.20321447039439003, 0.8931520526046115, 0.9480582487878353, 0.8262102067487834, 2.154593462245161, 1.0534417655459485, 1.250581613664338, 1.3153927387195816, -0.5937800143596387, -4.409561934647638, -2.7390401118112013, -0.9488398751562145, -1.242477207169973, -0.016013811298948175, -0.4208601537546755, -0.011444588998255557, 0.7826009626242364, 0.8352895098243405, 0.8466057510741267, -0.04589374114784157, -0.022036857367448662, -0.6961280542180922, -0.2056957754353339, 0.05844202367969977, -0.023244664330776217, 0.010135149453181072, -0.3264170111009087, -0.7490107416327737, 0.3109754496818801, 1.927671676000773, 0.662006207906214, 0.4496263267463812, -0.012388772073771662, 0.6648141260354075, 1.6217545669838695, 1.2035605372469207, 0.626251507526794, -3.2043290410332315, -2.1629881625786247, -1.419532109368779, -0.3665760428470634, 0.2613964498784779, -0.18230110395484941, 0.28249444200005314, 1.2603571675054406, -0.5385325808205786, 0.9266497234297594, -0.15444025011007761, 0.6536899693472056, -0.46365721437294155, -0.1307194433208208, 0.17611576715398602, -0.045853135207064334, 0.042250609296308445, -0.2870426207023207, -0.932425098055895, -0.1930819747446892, -0.29717041154898793, -0.2179899175370068, 0.18149925696846933, 1.638881826187984, 0.012552036572761202, 1.4502437027790163, -0.6988348934095979, -1.4122299295164633, -2.0963061878400437, -1.022730612025109, -0.9482536962276154, -1.21871577849611, 0.919844580008692, -1.0741626631629673, -0.11434039044192745, -0.7902990372562517, -0.0436640605322358, 1.0242079326726838, 0.6770924242944286, 0.03278021880575485, -0.014446015920770341, -0.006580464064128503, 0.05402221244464156, -0.00029046713673506336, -0.008541346148084904, -0.2376454102477137, -0.2879537125473288, -0.2566416051605795, -0.34151791351196276, 0.4781610473918358, 0.48958129209363005, 1.819482328056345, 1.1653650060231084, 0.5359704102924845, 0.8976208725310714, 2.7473506097559284, -1.0735318945011467, -1.7216225829870997, -2.337239013179514, -0.9579717378526001, 1.1139616942664636, 1.1652187000104341, -0.48367069885325886, 0.7439787122409353, 0.341893436143724, 1.2304895122637063, 0.029113430059114015, 0.13799670375029338, -0.1033125450390912, 0.02699946512909346, 0.010650194195955295, -0.015351535138214738, -0.005083712084006299, -0.1438826464336227, -0.210597705056572, -0.5873900504487332, 0.7755882514419506, 0.09337924396877767, 0.8953744113160985, 0.3959678683786235, 0.9577742652346142, 1.3604699199294443, 1.478990431586002, 3.0894369713225145, 1.1924409847418762, 0.2338625175787287, 0.288849290259027, -1.121066480940489, 0.7422943923708116, -0.3932528918370711, -0.5384949814657793, -0.4646053273675011, -0.908128734971864, 0.5788867849707938, 0.27224565424432356, -0.007630434200498255, -0.13599638332673886, -0.009700209322143561, -0.03560613020495075, 0.03874787534647285, 0.015503364356651908, -0.15557192609076254, 0.22696719735186982, -0.9450670771630657, 0.8854412446785894, 1.2207647885450112, 0.3047662056221445, -0.3935482798758482, -0.38600369465125356, 0.4152602571751275, 1.5544376719538036, 1.1213240844656966, 0.7884810469795885, -0.010941235872888658, 1.0461340115066917, 0.9920863171344855, -1.6068320749776703, -0.4010226341755506, -0.8910242987285102, -0.7149133530075589, -0.10126776450703497, 1.1824069432467599, 0.1697162145689429, -0.5685127901158207, -0.16102688086066824, 0.16061549361037936, 0.041492060576292955, 0.026417004144956166, 0.030369058378985708, -0.10844145195300223, -0.2616977816188776, -1.8800694060129963, -0.2768841691895658, 0.7387461256973454, -1.1225269897872518, 0.25613733912390235, 0.9778933520559278, 0.667295513380326, 0.08749567763022953, 0.4704878298990617, 2.669543930571033, -0.1286760027544251, 0.6012968486767043, 0.7071845381659527, 0.4598404555391812, -0.4688491887931169, -0.17353087178498217, -0.28014433351743034, -0.5416957281167132, 0.9982535761967526, -0.28409359463875383, -0.5438452157939933, -0.14701915775827581, 0.05289514039184204, -0.008268385727975433, -0.05534476516011178, -0.016938608845006906, 0.0267522741276546, -0.22219586588089954, -1.7119687061520397, -0.5633328514354768, 0.7882511821901395, 0.518053883403819, 0.16292454544228652, 1.2646064821637213, 2.6273671085447496, 2.2733743982966517, 0.4049291447186342, 0.8901576230437039, 1.0411881281565065, 0.7401951806930895, -0.21006605728312072, -0.01915708604422528, -2.1373420900582465, -2.5897532249693445, -2.428647048465306, -1.1381799036277878, -0.26774983258797186, -0.20336552412999487, -0.3694797230370282, -0.07907087264608956, 0.05910336101292152, -0.01720832217206409, 0.04068417205501676, -0.014444031505877579, 0.004790758206108386, -0.05184931854749204, -0.21395647992267242, -0.22767857613288298, -0.17344705309741515, -0.6954373179761422, 0.04150967785017561, 0.07619949826849817, 0.32006964440712216, -0.38104397767344167, 1.4291629109352382, 0.5381430638538992, 0.22530852464458648, 0.43416050755843083, -0.6265809860135063, -0.8586103976425726, -1.6438545609487094, -2.126566308958769, -1.9437358118792458, -1.6852756604348238, -0.5655466751822019, -0.16832846804739202, -0.021835974728661882, -0.048445287906334476, -0.059011124883146054, -0.0010475521848734362, 0.005184452647374091, -0.007858357522978969, 0.05634467520357837, -0.0026516817373462634, 0.003988860699390709, -0.05001562960344971, -0.6857121729894184, -0.9098836675157088, -1.2304605648277596, -1.2624571319596416, -2.68453172085787, -2.8086652870235373, -3.1287727389155586, -2.742212858561999, -3.2042561173643995, -3.513139889353019, -2.504234140529537, -2.615608443144911, -2.1745687192411123, -0.9038040016449417, -0.9344272255031898, -0.9284923145616253, -0.3965352557686405, -0.06197028795863518, 0.0023102987986190204, -0.03695027155158613, 0.026413135927503772, -0.04961443567634095, -0.00011716319346183335, -0.03459262017982079, 0.023679959193755526, 0.0017531583166190273, -0.024004232682580506, 0.0002739290400970845, -0.0413080233378906, -0.14759210898562086, -0.2192782333416282, -0.7454895410490341, -0.7647387177306642, -0.47987648693611507, -0.2076631158072578, -0.7563180159060956, -1.1943309142830056, -0.9464125086850762, -0.7293063133518409, -0.9076255476978758, -0.5049556167797739, 0.04052256615717123, -0.27044229378191253, -0.5303177198812702, -0.3456965987122671, 0.03558437708758126, -0.04040598061246763, 0.02342460446536357, 0.0492019688300539, 0.0419975950671526, 0.009403179574991094, -0.007001906015457082, 0.03181296025801719, -0.05173238982066725, 0.04462073510806659, -0.039567679453336384, 0.024344269163844134, 0.047575485877826854, -0.025960513577486945, -0.017507566761395317, 0.0033246608434318314, -0.0006863572605973478, 0.03040359238264609, -0.010383873553962858, -0.15660408571661094, -0.20347052729918874, -0.18501377394291785, 0.007242099493724756, -0.04811640912868648, -0.055195568145031966, -0.020209714047564588, -0.07222118694610004, -0.34521511172935243, -0.04864008120779581, 0.012208924277243904, 0.05596584272126863, -0.05095199286783936, -0.011949341472244704], [0.052960556273452544, -0.049732360443877806, -0.025370405133215368, -0.05601075461512973, 0.05559458556298606, 0.020750984618871288, 0.01323680330586878, 0.0018663070179615812, -0.03212144928136072, 0.04594897856426847, 0.036558349861261316, 0.033993083217773015, -0.012946086971399921, 0.05899919582537287, 0.006368818126235784, -0.058959832776715015, -0.046260084652302844, -0.047526901641854365, 0.014733640144130158, -0.004753385312790626, -0.027430523256939114, 0.05453237479435244, -0.008828218550037424, 0.022729592337390747, 0.02221385499022084, 0.02880527464834086, 0.0057408815467962365, 0.05681290506069907, -0.028356600097906665, -0.013031861454940459, -0.01384669832501325, -0.04456411633365393, 0.03428181479419633, 0.027416432743304464, 0.01396323071927541, -0.056589718177269904, 0.0544224271873327, -0.05730369721696753, -0.02838074551256574, 0.03358804110714862, -0.03723564420426886, -0.013375526865988502, 0.04502893211325178, -0.054215029025975046, -0.13296638381372183, -0.024185131104975582, -0.03563085289446773, 0.051984801068731656, -0.02117388488639242, 0.051184245184498794, 0.02791481785343733, -0.03657384506392375, 0.02368861884111967, -0.039250947295516966, -0.04340047679419543, 0.042068363352582266, 0.036777222114508304, 0.056921341216841365, -0.031239818827894065, 0.005442276713649968, 0.024437300595438735, 0.028422534273012223, 0.03201026957948497, -0.03653198104818242, -0.17052251679937522, -0.4487794672939822, -0.28454260035600165, -0.17013938386898908, 0.07603864669061829, 0.921143282630358, 0.8533589673055021, 1.4297282425302704, 0.9816851974417331, 0.530626739970497, 0.09205337342504354, 0.29606712771090354, 0.13043469342632746, -0.1267082588914088, 0.0027872265545367796, 0.01669408661250163, -0.008682255318557874, 0.0360217156947632, 0.008762351428988305, -0.01120083826693391, 0.01846557478107856, 0.039224254241759696, 0.02862849051519161, -0.011349455411458216, 0.007746375604574432, -0.007791063261802927, 0.055437801460625866, -0.059541000232831036, -0.12622197929191703, -0.195058650503337, -0.8185973091649608, -1.6583872023664572, -0.49909475040915613, -0.5266797301486894, -0.16574200420156074, 1.507825520156347, 1.2741130940502845, -0.3819624221001857, -0.32398117266786014, 0.13910175955593118, -0.35009155729880725, -0.8722079688744931, -0.7969068555993564, -0.5771544953428177, -0.565698223677676, -0.1233544006613004, -0.15685396653036424, 0.04573949287658917, -0.040042194225210846, -0.028047144083935577, 0.024826310281400747, 0.023603354142452466, 0.15016644853516298, 0.4661264489612142, 0.28591563784313107, 0.10359495309291371, 0.45832741525593207, 0.046875948710895704, 0.7662089765602693, -0.22570420270683933, -0.20403809398400316, 1.6149301283876656, 1.3505217410394144, 0.4131948198261553, 0.7571157908953712, 0.6856164188323302, 0.018078591618558175, -0.038530673355297446, 0.6171557492613385, 0.2158270473621929, -1.1654043944493186, -1.0931342935993185, -1.5776982913347295, -0.8663493712377073, -0.012303815676810374, -0.04162703517264373, -0.053993909628569176, -0.02330346751416377, -0.014140261378013178, 0.1344994623045321, 0.19393395978330383, 0.9380703556375128, 0.9155879183900226, -0.14783001138944216, -1.1781137820337668, -1.3617711090706013, -0.8556673794249855, -1.7857495442133458, -1.4414401939905528, -0.5536661482325288, -0.8036032290307368, 0.7707040832885701, -0.9103963554071605, -0.29042729532806805, 0.18229979418663073, -1.3067126977161818, 0.7466248847123262, 1.4296665990524506, 0.8400035501623785, 0.20958640302187365, -0.11764495265288909, -0.8314566667815454, -0.2850227251942065, -0.04734424637489622, -0.052388414853857854, 0.0421451471324336, -0.021668993302284653, 0.3380003632359399, 0.47511788123759413, 0.18689622285047247, -0.174835542589338, -1.0693333337935038, -0.9823544523929488, -1.2802754399757967, -0.04774859659098331, 0.04839921923045941, -1.2925956943845387, -1.4732436655125172, -1.340227318589302, -1.206787568890862, -1.5943611611071096, -0.5476592071648271, -0.10502141101485624, -1.2930613226563266, -0.47978440936872574, -0.08406735007351629, 0.5916043961208853, 0.2172060308699626, -0.20025609643012693, -0.47264272845035976, -0.1941926895473886, -0.044406432905364675, 0.028899235913633747, 0.027789887421272308, -0.29975437610313566, 0.05989795084382829, 0.2582682184373517, -0.4855436515249904, -1.7155152264489835, -0.9515119677808985, -1.7903775793566923, -1.0399938646640237, -0.1510406519170687, -1.256901217544208, 0.2710259587108439, -0.4777520800608029, -0.2721391057790499, -0.1426431904251943, -0.8188160383601504, -0.33157804031893845, -0.0742605450256484, 0.2502659888605395, 0.6106391891391441, 0.5773276236675479, 0.1689349736562734, -0.45268799714873836, -2.0541448249076715, -1.182287095941506, -0.04183985144501351, 0.0513969304440772, 0.013628628821421546, -0.056547469159490056, -0.24603261226256834, -0.06687988617509484, 0.10175924144083932, -0.4667865487830365, -1.1998233010789754, -0.5051035747956903, -1.0143461455166705, -1.5664209844548966, -0.5623433522384804, -1.5006046936475952, -0.0046737469636592005, 0.7228951146761233, 0.1780643925540405, 0.0977791776272373, -0.4318787751876846, 0.6176690921894548, -0.4750629425840552, -0.0881672548844814, -0.32942755165448473, -1.1755731126074511, -0.6450971573326142, -2.2170385506497214, -2.4484231879756666, -1.279178959977696, 0.008526187502477772, -0.012362110889313487, 0.04230827807480837, -0.0908913041305441, -0.1454532866676358, -0.11782861518806097, -0.40957924980466065, -0.9589197372628685, -0.8587764236961689, 0.24677569020300816, 0.14858394680896383, -0.9722660752421544, -0.4982256295694527, -0.46038585709742724, -0.3617697445962915, -0.9073249207083064, 0.58564498044261, 1.3806903530899597, 1.119487478505292, 0.07780953597368931, 0.46809226945872046, -0.5487448840908927, -0.6495723930770063, -0.29379471930084994, -1.228354230043985, -1.811278735175509, -1.071664412624191, -0.4068288118050474, -0.10384161455613455, -0.05690280524924366, 0.01284632540049048, 0.05144402847670777, -0.11727829570641733, -0.4084678095700187, -0.5039477250122076, -1.2816389062672289, -1.5891927075381196, -0.9925952898889506, -0.460559080667108, -0.5848166456730604, 0.32387115216871304, 0.3628473710354946, -0.6358299156233074, 1.3519796396430772, 2.0160061506134266, 2.775275306060426, 0.1979607272260453, 1.2441824036061302, -0.6121581404308191, -0.987755297815257, -1.1156491253230065, -0.2707867293163366, -1.3540863933412586, -1.5156591761682483, -1.1558207977729749, -0.3122051049423416, -0.17329872087673545, 0.052399376913180126, 0.037925390386510105, -0.01645621865563352, 0.03552176366476954, -0.19884741901045383, -0.4957217265520078, -0.9998983273247821, -1.7311959635250458, -1.009526826483278, -1.414954020510571, -0.5018242381102942, -0.35849633230204614, -0.9540223235751317, -0.33489333936801546, 1.5592093408744396, 1.7847519399916814, 2.009653653411222, 0.28269964727640756, -1.1538129817849287, -0.9515004812437577, -0.9170152544819414, -0.4101609963278036, -0.8379889793972717, -0.9765420674297449, -0.394556715832214, -0.6101214017868588, -0.1608123627506278, -0.08740664154388246, 0.005231065371311244, -0.037186799719543036, 0.007972565486027192, -0.029924786704181448, -0.014725194967536694, 0.02749010150044906, -0.45622785590354303, -0.37143339129893627, 0.07982315377231355, -0.5549823281525824, -0.11806134266782121, -1.3023318844998808, -2.321985808017587, 0.1559550921079152, 1.1136257458119139, 3.213431331826878, 1.9260805819558284, -0.15946467291313338, 0.5356508336046625, 0.09293929419261936, -0.21623455784901333, -0.2735785344983956, -0.2021296330114506, 0.1370294652257235, 0.1470335486962338, -0.225541271444716, -0.17147854157697773, -0.0035231132317636487, 0.012258002313554006, 0.01880381579753357, -0.04623767803791041, -0.0390000775832981, 0.11747973903924247, 0.20832650651440093, -0.008997695417780165, -0.07680945197360423, -0.4117936747188484, 0.15204993833412128, 0.7189775808931258, -1.8716182939075996, -2.2753454532559667, 0.2064315282259936, 0.8141937178016372, 0.8211328566902034, 0.7448597304014233, 1.4940753834214158, 1.0076218526698915, -0.8799072172960507, -1.0361577302472997, -0.6502525661167015, -0.6315170835194344, -0.5949851718872567, -0.4706966281915227, -0.5246715100047324, -0.35779106987929377, -0.250565405283676, 0.019996463336447598, 0.030737434511433306, 0.015584776860485483, -0.03670931626871692, 0.08680858868533554, 0.1351809027562062, 0.08521266528926513, -0.5824272131605254, -1.473269006755529, 0.23246997459096616, 0.2882925456365516, -2.2713012550545306, -1.582784575326425, 1.28581126136453, 0.5296504376276798, 2.1143722218356733, 0.4143835749373599, 0.6821053185004348, -0.3270150469329326, -1.65789242647573, -1.607950733346846, -0.7644074639225299, -0.8199627687957035, -0.942805589654076, -0.5385946973485829, -0.31162291488035443, -0.22763940204129673, -0.024683219515831203, 0.033913640170806586, 0.021212797738555306, 0.03240152892670109, 0.07998082391082625, -0.023179176353613468, 0.02493150966497726, -0.3259777564811229, -0.9159095677965837, -0.7043830348232473, 0.55018763612701, -0.8329071025815379, -2.7286726706218216, -0.5527494531613505, 1.7683071915822464, 1.646231745223698, 2.0770161443571697, -0.03532087170738203, 2.251718738828383, -1.9594428135039896, -2.0016603363456964, -2.1034510497793257, -1.2094109020594828, -0.7973686410881347, -0.5145065362367436, -0.17493658441353122, -0.07790875246900945, -0.07757378045181364, 0.02260373986228511, 0.00013720721619994714, 0.01339563566490981, -0.04760060738920861, 0.11958971243123906, -0.03239803303038391, 0.025923862888612915, -0.2520309041967307, -0.8612402752575686, -0.8208385285364345, -0.5290109578662116, 0.08294077740273764, -0.43214351625426106, -0.7337109091604511, -0.7727936323154271, 0.41295952055755714, 1.863199716482717, -1.2272361727212564, 0.6769732345097286, -3.6388532188583564, -2.1608917446642364, -2.1968368119887636, -0.9682715305198833, -1.020751014218988, -0.8953571488472308, -0.6665239695470094, -0.06244073388786091, -0.45001192639635235, -0.24017407330417323, 0.0575256624860815, -0.0015702799914107737, 0.0037718516763290133, -0.042882884957854264, -0.04634002530159748, -0.1169739996263499, -0.8274684042925289, -1.4398607378967252, -1.1698545351615028, -1.2269680687822693, -0.6769415532658258, 0.07369524611379957, -0.33472580992774975, 0.8337339674579136, 0.9638222851909776, 2.0837740208847233, -0.19787691629413015, -1.5657072799161553, -2.7125197154052527, -1.1379892255177346, -1.1160654492384634, -1.3440176865837685, -1.1042856329655102, -0.4301492620335119, -0.09389737373585653, 0.4753809737046727, -0.4581415523277715, 0.05439332562561858, 0.008540133990853072, 0.04381317618627424, 0.05810415106733274, 0.050882532128957214, -0.046701288331112804, -0.17542185303285845, -1.3689705707731887, -2.7122152340958325, -1.9388193018932636, 0.09427476356619276, -0.4535448326634826, -0.778694387946111, 0.3212763833663619, -0.30973336673631346, 0.7728573184251867, 0.8084758434408237, -1.2047586177931322, -2.330773692220877, -0.4582798346325443, 0.5939013268605047, -0.4132716968705689, 0.10333450934910451, -0.4785002601707047, -0.28575730455289855, 0.0786988721256188, 0.28438240049926655, 0.47135097632358924, 0.107419820155555, 0.01820374786406595, 0.03157037033790139, -0.020480583867745664, -0.01551599252769386, -0.009951282616256187, -0.7361431209832293, -2.8056952016201446, -0.9277856548990091, 0.8798805207123772, -0.33518735186777143, 0.5705936597983337, 1.0225269653178173, -1.589264988663057, -0.8990715588125924, 1.1481223140189927, -0.29038897710348843, 0.28654542733050004, 1.4022618181015258, -1.0835078847396646, 0.2278567372246892, 0.8643784715444464, 0.11666106110786381, -0.00037900883128572094, 0.05290688369039923, 0.19110994226577646, 0.4584005758934527, 0.40331718149196766, 0.07863560197281469, 0.04711230795556366, 0.047879132541760794, -0.04335474213294491, 0.0336431347368923, 0.08735092560179754, -0.007141325754376318, -2.191798675048797, -0.6034663345413562, 0.19792874284283235, 0.41896275027781643, -0.36127366394081184, 1.342913978840331, 0.3267762086896098, 0.5205047224536807, 0.08489032914757574, -0.3524712523513781, 0.06334923779252336, 1.1584483298308395, 1.3349032027525234, 2.127785546547976, 1.8833758782925416, 0.6209090994297611, 0.5259542145182938, 0.17205698259786734, -0.02217527500599685, 0.620446723416757, 0.18452636051470717, 0.03895552595866089, -0.00840569953645827, -0.04538277398358747, -0.0011651479961463929, 0.012162548961640055, 0.41406162255337925, 0.8550322270808475, 2.0280563765389963, 1.490471873811459, 1.2422259531423314, 0.802374894128942, 0.13620474857128903, 1.1405162921325334, 0.019390232515385984, 0.24832229306023612, -0.12278026942380006, 0.6151074406933842, 0.4531236329962681, -0.46554610542543096, -0.5303098648605382, 1.0145761426379658, 0.7019543513412234, 0.650680264718879, 0.9183683831942862, -0.6435406907161451, -0.3471224459871602, 0.781071515124099, 0.5405058494074375, 0.11344127203918661, -0.008764926781350414, 0.059259499931055434, 0.012341123699085313, 0.035747462007425, 0.018296526961238593, 0.1968030519041249, 3.816727657861907, 2.2739850020449457, 0.8514266224385744, 1.1022979280457121, 0.3038676103524521, -0.3737106902148973, -1.0680474683280978, -3.2596094328170464, -1.4911943027722878, -0.05483040850335881, 0.07831957601790851, -0.2842268162314984, 0.9439062898058478, 1.2499658010665293, 0.990676616168634, 2.0902834956980563, 0.900389451052304, -0.8906148592137701, -0.038539670832378886, 0.19144151471978554, 0.19735419560013492, 0.04001258293783248, 0.03937689441149407, -0.030993191323762635, -0.01602947998404816, 0.014593071787162543, -0.5011929229736612, -1.4901287241841166, 0.5702255195744468, 1.2310732894586467, -0.1158750101806733, 0.37452553210049777, 1.090837866283542, -0.17231532280556866, -0.40718731205660574, 0.7593432074110213, 1.286429802044485, -0.8006685542803009, 1.1134700894175333, 0.6769628531592068, 1.681187442870237, 0.025710035424214156, 0.768477366640998, 0.2988867726236368, -0.7868599715258928, -0.5731119086210996, -0.5289405416346518, -0.24119774278506306, 0.072344584526802, 0.36060165161117164, 0.055275007294671996, -0.021059423099814706, 0.05276754756873099, 0.030036642977968764, -0.2261771468677147, -0.935905787245538, -0.7705431631386771, -0.44789931449825954, -0.09829312622498917, 0.039472988763881306, 0.5183967082560653, 0.1583250731415523, -0.6895107403147676, -0.4994691929692422, -1.2506759050607723, -0.7145438971542128, -0.34853283105903543, -2.237276878724321, -0.5428544213416664, 0.3883866894318369, 0.2554427486550968, -0.06132839190707492, -0.5612024345502543, -0.500868563705655, -0.24560058427350834, -0.34757353391146467, 0.03634482943404217, -0.04277820428411419, 0.02938596149317263, -0.030449308193081344, -0.05186245450155558, 0.008766456623655688, -0.03121258303063601, -0.23591044240068132, -0.7832530549922397, -1.0886426516679801, -1.0142572339054239, -0.3428837050447387, -0.613161877254525, -2.1790663430305632, -2.0424973604555214, -1.4275304445524162, -1.113896790271023, -0.5068232890058454, -0.6479890927613663, -1.5800376194798949, -1.5578295042514934, -0.7228992137620005, -0.4131054776305426, -0.1111876384797972, -0.03831905210570774, -0.048125681948358506, -0.04947178892702406, 0.0575608336937565, 0.03751383791451128, 0.028685789336951137, 0.047743776397424165, -0.04116653586286596, -0.04977594943854322, -0.04930417778342822, 0.017375425023235483, 0.05597063882477779, -0.058813235959035405, -0.11818088652985195, -0.1254835379300695, -0.10636976544297086, -0.08509758009853435, -0.5978863974435618, -0.5201014791607411, -0.47912455828148953, -1.1712229911087562, -0.5577515375289831, 0.08650315957899038, -0.2285171273235017, -0.28439068652850313, -0.457107905855656, -0.27203135178955173, -0.012092581307616042, -0.028001312413253668, -0.02727835579947474, 0.0010509354554904884, 0.059622128083597445, -0.0252260334983724, -0.039590710451085864, -0.04522828360207124, 0.04828079994088151, 0.022031253196896125, -0.04410754101250483, -0.02358214876376817, -0.03976871304107576, -0.02585615194016601, -0.01631813024478216, -0.057663297580707325, 0.0009216057719966322, -0.056088040696597785, 0.0565985722913878, 0.05178129188933786, 0.024039013542636725, -0.04436767891886188, 0.05611937125433844, -0.030603359591208842, 0.03992444221332221, 0.011934040691121223, -0.10737109167618204, 0.05158516558671203, -0.04892882839553712, 0.015746049902009424, 0.041191498689430645, -0.014467644690012119, 0.0389863565208059, 0.016364496388595065, 0.023479122465653937, -0.03785875136274669], [-0.05903770715505068, -0.028467959155783547, -0.04749394436904547, -0.0024065095637412007, 0.05303079591973757, -0.024416730152339403, 0.01269479688969384, -0.03222594433184493, 0.04894931640165737, -0.018378537420354897, -0.048010673290974124, 0.020654195771498532, -0.005153433339084412, 0.033559691946818807, -0.009408035203991923, 0.05058782538381629, 0.006666990338029075, 0.025733187640543748, 0.002436432019448931, 0.0014352550390628882, 0.03724792188664604, 0.037057967119931604, -0.055823600721367155, -0.021275899221234906, -0.053924853529196265, -0.054366567099064816, 0.034032713243295695, -0.0037081941056991835, 0.028530854667474848, -0.02954044631351342, -0.008072107214851118, -0.01622692051085503, -0.05844555117831902, -0.0480820279699995, 0.0036429152461350256, 0.005368553488364694, -0.048565362987095365, 0.015479085738082404, -0.04283254387289473, -0.05484771756703431, -0.07790879062181968, 0.14805815877055958, 0.6264117009238181, 0.5384688122241202, 0.21352318478223498, -0.17277806288696254, -0.13163107844361654, 0.00188712397327237, 0.05344339046950759, 0.041392253205421906, 0.0011480974408527161, 0.020381157220159207, -0.005229753336333541, 0.048805971037973864, 0.0466293900243331, 0.04041453002608625, -0.012431296646027122, -0.017842886388296085, 0.05359203485842817, 0.04476547497269273, -0.03604288194568529, 0.019354538537167842, -0.0015467532966462888, 0.037302230127842104, 0.3437431783928891, 0.6421767337189225, 0.38708931762967774, 1.0472725143903951, 0.40853504965165643, 0.7623846014251893, 0.4446920709074667, 0.1385721901350644, 0.5310025193867122, 0.04751093740030911, 0.03051755295756431, -0.29698097261431405, 0.0473641221636862, -0.32567815581571297, -0.4123485229494616, 0.17137360616050978, 0.6024255369818399, 0.33954009870145374, 0.013640916666953828, -0.020818013692793243, 0.058599470616477675, -0.013759450157485802, 0.024916550558599607, -0.028015824217311948, -0.1788643614079059, -0.10163045630089636, -0.22605731695446402, 0.09617490645949404, 1.2459733305301914, 2.050199926898534, 1.4270832846867207, 2.277138899390275, 1.892687272836704, 2.5514697251551213, 1.0915903963344966, 0.4041169675684912, 0.6109652794926183, 0.9392026066760636, -0.21258406408470862, -0.20463421312730856, -1.154521793975694, -0.9085642543180086, -0.644577184528651, -0.5757173907206224, 0.13278171734948335, 0.30089639968527815, -0.009021893312273536, -0.042579290359072, 0.033555454281206806, -0.05374496531935071, -0.048834579209898865, -0.03551435993807848, -0.40611100067692074, -0.5318273309193319, 0.5659267364713902, 1.4719641535736299, 1.9083670094049376, 2.367414840002737, 0.7353189896490301, 1.1473451905851617, 0.9385275428017973, -0.850323237294305, 2.8649334387891834, 0.856906684086642, -0.9253879455243573, 0.5640779641851323, 1.1587207998292572, -0.31614123768940705, 0.16874703074883396, -0.34753825964325874, -1.9711855619020429, -1.8709345505232868, -0.8361352693569135, 0.13312500361137722, -0.03706853855043467, -0.1274078562796531, 0.04840455891848995, -0.005112298809794608, 0.05584595251595935, 0.11567978029453954, 0.009225523730723544, 0.5297763581016351, 0.8248586871414019, 0.953622881079978, 0.7361868965299373, 0.08485734840729493, 0.18102911348870343, -0.19683197900005128, 1.0484272279446323, 0.6953567177249885, 0.8609092697269606, -0.058390861737878816, 1.370284937160905, -0.113033889630075, 0.43172643366322294, -0.09496993853080107, -0.2371190252608739, 0.7472991120369301, 0.05845213404960125, -0.4811621589901992, -0.8917397018686484, -0.1597858700184421, -0.20230843764693368, -0.0814964537398554, 0.032446898132465124, -0.015640738165659487, -0.21094500392324977, -0.010004671623577766, 0.4946083177081305, 1.0470491668479778, 0.4275345470429611, 0.4620597582609042, -0.8505756892434934, 1.6770192647332183, 0.5926827624071015, -0.4235335429382176, -0.33655995171043546, 0.2814658329193378, 0.09023482897665991, 0.4554330429906837, 0.6047013162188412, 0.07326338410706562, -0.44320099300051785, -0.9168726018048573, -0.8417902531284776, -0.5721414969634513, -0.8255690979246894, -2.140724735484956, -1.2153755800710673, -0.06740379167341688, -0.04982512907423539, 0.004903023100871734, -0.01401647856559201, 0.04496779105519916, 0.3248523642918311, 0.310166990010466, 0.7571047259707705, 0.8441019558961403, 1.1885384274707929, -0.006196668414339107, 1.1848624527787186, -0.2791414397881891, -1.002837517748101, 0.863360459347084, 0.13165723494280365, 1.5102065810313818, 0.440828947086769, -0.666011068899648, 0.9476527973145952, -2.4891913176503215, -1.124871307529546, 0.3975383992297153, -0.39323090044718245, 0.005529866892878897, 0.8769362824249535, -2.6085556976716884, -1.6766613689974001, -0.2135154801619082, -0.10148974156721766, 0.002334606044798848, 0.003931798789403793, -0.028965937323992448, -0.031757058970304404, -0.30970016735311046, 1.0125819615754192, 1.6426569691540935, -1.1386761772202638, 0.06832016955991123, -0.12710880549013315, -1.073602636243941, 1.4562371762650619, 0.21952187875208942, 0.011840272512804964, -0.6084819465816822, 0.4875242522513203, 0.2853816883965298, -1.2350181426987328, 0.5087086858374379, -1.3747157942343557, 0.720768270807012, 0.10220551493486255, -0.6439239860292505, -1.1159421293881238, 0.45929021907533724, -2.4742858276960904, -0.39883838140966976, -0.09029397505426835, -0.03198035551523233, -0.03918451288674253, 0.023755665676656768, -0.572021278103281, -0.22546054623479728, 1.0868207558764416, 2.006091755984452, -1.5847294334558257, 0.12524477294928438, -0.540080890975488, 0.16002414691027023, -0.4972601114834147, -1.1824824205839584, 0.15490875573796134, 0.17404946704064617, -0.42118328463016447, 0.6702398402142596, 0.21440340887470885, -0.17941134451520035, 0.0532549892131047, -0.21338364375302127, -0.3961414669469213, -1.4109690923767801, 0.5668895934575137, 0.4356472134557988, -1.9310416805324537, -0.06061370605075454, 0.06378268033206339, 0.01618640357405708, -0.04106906475781924, -0.014694441029653699, -0.1713894255776127, 0.523549848582833, 0.047835594806475416, 1.8808663804102186, 1.6563606824766877, -0.5972773563342411, -0.41688750281463766, -0.9058218556360148, -0.08303592755744625, 1.1025640498200995, 0.17843127806550896, -1.1300457475465613, 1.158188481400874, -1.6261553489376894, 0.8569710842895581, 0.2531735402090513, 0.19231475821037533, -0.8864477620760326, 0.08839977594337625, -0.16356008338803052, -0.4870188042585832, -0.6028779987015799, -1.7714504973628364, -0.24711111438561045, 0.16984842799740996, 0.052442289950435886, -0.016224149522739657, -0.04041022341343109, -0.053533475828814035, 0.06383199490977041, -0.7521268180345743, 1.390355667517384, 0.48877221833943474, -1.0066610955484911, -1.9436423136344487, -1.7518352010035332, -3.4083484585047032, -2.3101709428069337, -2.863568185714602, -4.091119444109794, -3.110555412637013, -1.7480817125705346, -0.542928080351826, -0.6830960191794959, 0.6012907244830589, 1.4154593338215895, -0.35904878538745905, -0.20485462737653878, -0.57520843660583, -0.6492069127076765, -0.7080147940529757, 0.5141210390051385, 0.2925674483341801, -0.054004912087637254, -0.04865830597633772, -0.0551075162002868, 0.05337796764793416, -0.8137526075608126, -1.2456012368131213, -1.4960734985986206, -3.9211293651628365, -5.487970945273359, -2.8151806724735544, -1.8953885447374506, -2.2445589777418626, -2.2846686050691267, -2.7361958194568667, -1.0376086053014746, -1.7178177368052023, -2.04151766644478, -1.865380515973107, -1.9283323198866609, -1.7361684803551525, -0.1142539925854688, -0.2325901567108994, -0.7356335217623537, -0.806625345697444, -1.7101150792028128, 0.7319380739236796, 2.040519388814521, 1.4534572422940242, 0.06428245972335622, 0.003457275854801073, -0.03190328821215377, 0.04652144735246136, -0.3773004953517255, -3.2134537534604206, -4.286073258881092, -4.534559729632469, -3.7479742992584812, -1.7075861507348482, -1.6698533333479315, -1.0095748082297538, 0.36095728243966463, -0.5156223556088004, 0.25619420437177365, 0.4137149840321357, -1.732510701343069, -0.5734389068427783, -0.7906020342327909, -1.4497205870060987, -0.08439803316449408, -0.6016414355533479, 0.1294762488541057, 0.4943497759125067, 0.562739410894944, 3.2551866447305056, 3.679292819127515, 3.0414258710069504, 0.7398729286040765, -0.0402885358279337, -0.07031182045294189, -0.08416361405193219, -0.19036407347660156, -2.020130559107402, -3.3781978810753226, -1.055013687335785, 0.6607227202573575, -1.0126381537019697, -1.1874813585336075, -0.9199713080779782, -0.10676869739158562, -0.0298693646947613, 0.5468173521843132, 0.9380986327392283, -0.2769166751071509, -0.19844504431930393, -0.9536595622160722, 0.806141866529401, 0.6869824566370625, 1.6300905508304124, -0.6136620394184541, -0.8270458611884774, 0.5134639798692118, 1.593699844793142, 2.7393008513593755, 2.6736407147031938, 0.10161660823252376, -0.020787479236554246, -0.1438813256808355, -0.3178672750547174, 0.35049246561419584, 0.3294345947560754, 1.8193371303771306, 1.3258312290699448, -1.1650276839254259, -0.2317661389888621, 0.11049832609657302, 0.7851753725902346, -0.10271861342161684, -1.3391223888049144, 1.1398899301914354, 1.019113905356651, 1.252403431637103, -0.47752215599887, -0.5673627670742261, -1.2375356687716337, 0.7735953025032424, -1.0229516103368423, -0.05591664171566379, -1.8861474595641925, -1.2845100445965427, 2.6754834550201023, 2.747692338410386, 3.1127013005446487, 0.4189442589874109, -0.037745641516533326, -0.08217214335087747, -0.360283689851351, 2.243795078294346, 2.1064617641797967, 1.1624821981666265, 2.1221934833592284, 1.1265744400642403, -1.4592898545313184, 0.903421277721456, -0.09455602022722409, 1.5396074018052714, 1.8720245221510925, 1.6455350818083954, 0.11649644748192517, -0.3089051129374543, 0.496819826407771, 2.02493213438555, -0.059518362183368735, 0.20145582760385872, -1.468720092669838, 1.2480311955306347, 1.275518301170465, 1.59338310843847, 2.7998291552897374, 5.0559841640250935, 3.792480086030708, 0.43064340943726576, -0.052098636867666887, -0.0639275206002012, -0.12039479617189945, 1.9331491069340414, 1.9541309656894446, 0.8438190332560365, 1.6552609717056883, 0.2942831871921591, -0.0755474829552174, 0.405291478047307, 2.3515590017558803, 1.1691877369159143, 1.654735370355987, 1.9802853787063186, -0.22234156687385126, 1.4590610176144527, -0.7580498672949596, -1.3094835140434937, -0.4532088758347842, -0.12979066711491, -0.2952087594754021, 0.1526881603430914, 0.42670660536357613, -0.3708295890324307, 0.07264935426898907, 5.1756339837253105, 1.7736379139475587, 0.0531211906228892, -0.0044496602137439265, -0.031189155828020308, 0.02025129189533753, 0.20872160856295663, 2.0996922006559413, 1.820632154174909, 0.35350001356326316, 2.187376178358991, 0.5705873828572556, 0.33479533928814825, 1.3958847838776092, -0.536384268879958, 2.4469694904892108, 0.3712984371199639, 1.0016477816431912, 0.203847694204895, 1.1438158739061182, 0.5961728598579362, 0.3813800489202963, 0.1294874668438228, -1.3586994054252541, 0.3999600339726681, 1.035580853029295, 2.6476243846701597, 3.2916200007653966, 3.358284253404156, 0.6309288700181548, 0.2802690600617257, 0.037887109881502665, 0.01932501260694565, 0.12735362830555233, -0.7879283875257338, 1.9559481840274089, -0.08763888873282026, -1.0223593746629756, 1.6633883071142883, 0.29742909610966095, 1.5794522266230422, 1.13136166622021, 1.2248294156202253, 0.379195956394678, 1.6966407865921274, 0.37119515275559634, 0.8711417347031605, 1.145633070106909, 0.6760219643002691, -0.2747064409450307, -1.837386826606103, 0.3033364905775511, 0.9572939303457475, 2.1308402208142656, 1.833909019388289, 0.9555854936118056, 2.5721628819852387, 0.974220023180669, 0.24072788058917463, 0.03839901380246953, -0.018555106385727285, 0.45219058786311056, 0.1857693881688834, 1.5756226158209377, 0.968675103718277, 1.6649333732705291, 2.636950956521517, 1.485548571066505, 1.1564928488366033, 0.7807597872889555, 1.5048949911243603, 0.32363551761023585, 0.9364124833807492, -0.03504215376846741, 0.2598839438515125, 0.9539748084477573, -0.7792708591817838, 0.919345917013877, 0.7720169908820297, 0.7484110465975782, 1.392768567376443, 1.5366546271927883, 1.203716814472374, 1.4744589432656598, 0.6605164968258157, 0.12700295002969786, 0.03277758772378034, -0.011863819536087027, 0.027391154160394143, 0.456946045620275, 0.7989651086998983, 1.364470499499272, 0.06897714150336798, 0.7278577862054472, -0.18456701819595547, -1.3437216550688826, 0.7290226483621909, 0.6544429482903814, 0.13716289409916782, 0.0907018732874947, 0.8636174007918113, 0.45456151273582757, -0.5040745069156252, 0.123231164250173, 2.0861422493868447, 1.3567754090339283, 1.8257152869682076, -1.0457544367726144, 0.452596117146728, 0.33215858227372913, 2.2198179800943607, 0.8374611156804194, 0.8461644602945148, 0.11980999558358252, -0.012574883775033928, 0.05216459616903037, -0.04007206591407667, 0.34964829049113805, 0.3745367404109547, 1.9600539377276456, 1.0863431888000579, 1.2647773970966865, 2.1203209453117515, 0.4548797876371556, 0.7756238142679973, -0.34809089347811895, 0.636761228745967, 0.8279409975311154, 0.4651834325960467, 0.5549827470755551, -0.04554950257352528, -1.3949508406078315, -0.48210861825809626, 0.7700735067026682, 0.089517976631031, 0.10278343045623684, 0.7538371198348309, 1.4779314956867926, 1.9373200174909757, 1.0901589248965893, 0.5650221678909464, -0.2101109639003244, 0.0106666816730549, 0.05930414458403241, 0.020069649156569627, -0.058555851518785645, -0.23510801546692045, 0.54934496802881, -0.4262700110839436, -0.6005084419710119, 0.6890310479569224, -0.16154640867735884, -0.03362150606054509, -0.2086686432378986, 1.322067645211784, 0.5742282439962431, -1.117649274238543, 0.34318784860353513, -0.012638357086913812, 0.03859942982309442, -0.19666963778875157, 0.6400193543021776, 2.7153912922420282, 2.079132021769806, 1.9252217384055341, 2.4219084672867126, 2.739736465393665, 1.266135280619796, 0.5636658495016703, -0.1501299963834576, -0.039217424127014774, -0.025383158492023196, 0.012896496256542822, -0.015323896269167255, -0.8343783601363326, -0.925129130056728, -1.5008212009203017, -1.7584427098855002, -1.3532138029193934, -0.7952006581554144, -0.08096505470018099, -0.19483416846069182, 0.16625572197234742, 1.1391667408807764, -0.09080693904890179, 1.3549202852718314, 0.38696519083483627, 0.14331682842572355, 0.9820384970319292, 1.396361964416814, 0.971968073241581, -0.05837085688392217, 1.3116634152682551, 0.09290774098865472, 0.8985099929920938, 1.9435526798958078, 1.1294141876898702, 0.1862461089326674, 0.05144591205299824, 0.0363035274388617, -0.027953512422212043, -0.015258772454550547, -0.16141924726764295, -0.0961842528313456, -0.1292443381370406, -0.02486699733660709, -1.3456616725198467, -2.210966167207986, -2.391588999477965, -1.3579238448569588, -1.4978195425668202, -0.6032774644122256, -0.04390002643302242, 0.13324636878636476, 0.6160107221550342, -0.03220040184733473, 0.495771984017558, -0.42716337841561336, -1.6654079166430973, -1.333054089392633, -0.699626839643779, -0.399047112167179, -0.170701958896775, -0.03635999261055792, 0.1644032466770584, 0.14783700428911117, -0.009796320769726717, 0.05733633914129442, 0.03550231754586139, 0.05194314072587314, 0.028024052830397952, 0.0180477654683448, 0.043880649840355876, -0.0026928142518268354, -0.3997023184187206, -0.3867869506805078, -0.4718583804204669, -0.16738291420623042, -0.3119359019026652, -0.17319199429328147, -0.46219786517275496, -0.18308398388500635, -0.22004885897993137, -0.522914640352956, -0.6231234511155065, -0.2584322071202147, -0.15609225745568278, -0.3475479405263957, -0.2211704356291674, -0.029391371550004878, -0.058589869095265874, 0.024499193740075226, 0.05496272485784816, 0.032769901844752675, 0.03952255954963592, 0.04212235797374149, 0.05888928767645424, 0.05520143875399064, 0.04826874331217719, 0.009616236885953922, -0.005191571119330128, 0.010938605845729199, -0.027090051994746817, -0.041458076685113365, 0.05006960315154131, -0.16773641524068553, -0.09538000951210142, -0.027413210832266638, -0.03338492235379378, 0.0008380407229808678, 0.031118950580026103, -0.027746589584837555, 0.055102771371522, -0.033754376998546005, 0.018310828955752576, -0.08787937018202, -0.08316894580168858, -0.04006510907622446, -0.04431830258136453, -0.009211301625656962, 0.02698723911218577, -0.016557237153801987, 0.007880802433423845], [0.0029922962747157417, 0.012481371017872459, 0.027462934103317252, 0.04185688196549585, 0.026188987109416306, 0.028170920668897786, 0.03346172547444892, -0.02047610526969433, -0.051551024880708375, 0.010007977806849783, -0.028154172473405265, 0.03516970149194418, -0.01419621590151108, 0.04013459606082899, 0.02124161071332896, 0.03350404940977747, 0.0075187126504587115, -0.0536297352796574, 0.03743921294168159, -0.05942300005356959, -0.05495318175512165, 0.051904913468893116, -0.023889916227849, -0.00535042696936084, 0.019356679927070602, -0.02283801880892314, 0.0011713630088357602, 0.03178650056046539, -0.0014130919965738356, -0.04516462074787042, 0.006714103125638124, -0.027052240000226817, -0.0257560221063785, 0.02756609428365865, 0.0007538154943412187, 0.05791512148109827, -0.00024337350750991416, 0.016402824228412854, 0.021826161998086208, 0.04522703455785383, 0.026018307308535188, -0.03248802604937143, -0.018962792673355183, 0.04545666123868562, 0.037635156916855775, -0.04328164874773434, 0.009476048248456964, 0.012100109905865158, -0.04400419338341948, -0.019500220970493684, -0.03641913945454482, -0.023406870907268458, 0.057673504413025656, 0.050170052738433654, 0.0026865197150809234, 0.02741924997630535, 0.004092810058990731, 0.03914963829001297, 0.0009720011152349953, -0.023689959097158604, 0.024299701464410933, 0.035625868516157136, -0.020992710000038245, -0.04477678922307694, -0.054474069790901795, -0.021133175466296936, -0.23051092797246295, 0.18868060574397438, 0.4867713354579988, 0.2134543947595325, 0.037288852342248394, -0.19912299780859155, -0.19220461541615674, -0.18062812117521793, -0.5257473005210856, -0.24640528229330153, 0.05621827650192524, -0.047167388319422326, 0.00921444606969482, 0.02782400656916116, 0.03003938929108388, -0.052202568911942734, -0.003540688204235823, -0.04488393692772742, 0.05414633130738003, -0.044951633208097884, 0.02558686768905548, -0.022379152451933643, 0.04488216562503908, 0.6483764438835613, 0.7421429758136069, 1.0419268619005764, 0.8691693801074833, 0.02357138520709281, 0.5417608285358646, 2.636709917211707, 3.0704009778193933, 0.5770788822764825, 1.8072311115058899, 1.2238298165289123, 2.2474599246596663, 0.9045142514730533, 1.2726400561043227, 0.8546683768997234, 1.401523158473051, -0.9446335650230591, -1.179191695793635, -0.4072943505132918, -0.1909836148911247, -0.0046321250230378225, 0.04576990331601197, -0.02204987924017094, -0.03941445089754028, 0.03337881845128061, 0.03675618367813349, 0.14905092987185287, 0.3188367672989869, 1.9992238753948013, 2.3123119571829815, 1.791752041906962, 2.993871298268775, 1.3448290595316204, 1.9559338726858897, 1.167996395373308, 1.2778483710461752, 1.4941785827464473, 0.20603971817248928, 0.5377252491551936, 1.7279842673648251, 0.549887043752461, 0.9515374027260644, 0.6317804196243553, -0.47589887538033016, -1.5422950257871342, -0.7878429045444547, -1.1986003511032517, -0.3362451188746766, -0.013338149526938327, 0.048129894142593346, -0.05023980144688558, -0.025037600476936366, 0.014534255345854674, 0.006776891728429719, 0.6665780226412096, 1.1864380100473924, 1.8276272412109413, 1.784407323269215, 1.1784506493214948, 0.05418378994086884, 0.2840324889080676, 0.8927887192524492, 0.8072761089077183, -0.14466440353005253, -0.06345269671950961, -0.2668076806647923, 0.6772440152597583, 1.0007646023319408, -0.9418860359574253, 0.9377970509810627, 1.9762858106932988, -0.508928526411323, -1.6442873088520007, -0.9381997775895627, -1.0480810735468167, -0.7481316210573837, -0.02023744491925967, -0.056259152720277934, -0.0030426954642754703, -0.025549661352195357, 0.01091087012636205, -0.4042678255339066, 0.7298947391674847, 0.7060140637645872, 0.3214230787136577, 1.1907176158341473, 0.6757874329234229, 1.0283693813925487, 1.4580293571823137, 1.2840505911866351, 1.0402863163810643, 0.3504687260391879, 2.2802346508307134, -0.190595185778266, 0.5794613737461106, 0.6283764747751271, -0.6081590511103623, 2.340453954448063, -0.8346523855129601, 0.816703473724665, 1.0662936392744786, -0.43164045711645876, -0.7939295097476492, -0.19961076177980955, -0.1328546444003146, -0.039976919122860555, -0.05428916082821844, -0.04132242108747475, 0.3125952251985999, -0.6573062992640502, 0.7478560771633611, 1.677678378197211, 1.5888661143750362, 0.8326789513052313, 0.770307563365193, 0.1944424193523725, 0.9622617228092792, 0.20089270744452647, -0.26518697636766914, 1.0739210677998574, -0.755430525380485, 1.6239756018474092, -0.4313797423534858, 0.05382501388445614, 0.9867827569790211, -0.8661544424628416, -0.4277407676466237, 0.5028682698430448, -1.1195311448662186, -1.5215184160277924, -1.2806194686984207, -0.5495638267835016, -0.1738054937355208, -0.024629149413348563, -0.05338999747650635, 0.0032318728347212333, -0.16698839352738393, -0.8601336308805861, 0.6041438380890841, 2.4830753488461883, 0.6592492766609568, 0.12494681530501489, 0.009852888100202961, -0.7762584517482898, -0.7927288675291565, 0.16786708262073208, 0.3993364755920069, 0.12473942251721343, 0.03468967906095494, 0.626153917157263, 0.02813466995558636, 0.42487293692109457, -0.5308725170110303, 0.7789073845838573, 1.101012011374537, -0.23146255284133394, -0.47117375220079993, 1.8571995767034835, -2.348329543134719, -1.8684646639305216, -0.3193614579582757, -0.00507312756356236, 0.00442960698754101, -0.05994149263016607, -0.1954393428364181, -0.16444810583902908, 1.0979222423144415, 2.595494145299789, 0.9561650747212342, 0.45498669918464835, 1.0099985272572918, 1.1388193442918977, 0.46983092124829284, 0.6119970225198517, -1.4784100594715508, -0.09219959413914212, 0.31720855889272737, 1.2224145451363286, 2.167185023520994, 0.8775610743646327, 0.45705773811076755, 0.4511080704456284, 1.4627286279560663, 1.619847565247314, 1.2158455641484496, 2.012734028954082, -2.0051785978985213, -2.769561146936298, -0.17730483095262967, -0.12244693831460156, 0.058018393814740776, 0.04276366851122798, 0.02642289513563386, -0.18346169787188965, 1.9703108713281499, 0.81161398825074, -0.17394202372316636, 0.022531790688881392, 0.4067494599558917, -0.7157482882690333, -2.771052021128437, -2.880243322434917, -1.7114023303765473, -2.029909439727089, 0.17414768043849826, 0.8183315554851811, 0.5787132763860602, 1.3662282596096935, 1.2945378578090403, 0.1864024949154236, -0.20478529204433088, 0.5790625107897518, 0.0456091189648257, 0.7152970027520478, -0.18153422566675914, -2.204845814021494, 0.14329657207946853, 0.005282727947923525, -0.050122939010544515, 0.05296887312438585, -0.0014281242123268673, 0.011128553469866694, 1.820068955655703, 1.641179702963397, -0.685256413964591, -1.6434082586359022, -2.565817059954865, -2.203280151899292, -1.452268293733763, -2.0930964167846917, -1.366006116198054, 0.051779635757298756, 1.0836085983519241, 0.5757670186846412, 0.8842752672666151, -1.5200364188227644, 0.4228362273334274, 0.8193915507270921, 0.43912648316878633, 1.6025731118106767, 0.19092764303988927, 0.21919269366310118, -0.9899633887033048, -1.5344048591620485, 0.3646496535008588, 0.007274677959455009, -0.04935282369951706, 0.0013710711173217024, 0.05719881493661012, -0.0371077738514819, 0.6624271464630851, -0.02725685746100258, -0.7900050460005904, -1.5389125745441465, -1.1629394719332882, -0.919280642021905, -0.025107803730047493, 1.9343419869097482, -0.9475186748687493, 0.8186621469551764, -0.5017465909161231, 2.003629215478263, 1.4457475655670105, 0.35190281266519785, -0.20390594269860524, 0.07029279180501063, -0.8281189053368674, 0.3563726876026012, -2.271243855456746, -2.493069893258152, -2.053118960915041, -0.7489244690638379, 0.23447661889995663, -0.05269543410499291, -0.012871135433246764, 0.039637767008693925, 0.04328258627786191, -0.058259664235897915, 0.24404047823980896, -1.7590234842466477, -1.1036635783107211, -1.6643003496304711, -0.14080662781740394, -0.8286386345540442, 0.01815120675863678, -1.234117701469446, -0.8025798931828471, 0.7909767830321175, 1.4384557909693536, 1.4649272817116077, -0.28942938481270614, 0.456440642566866, -0.23482481291327018, 1.7247092814041687, 0.1592204122824533, -0.8943514297410964, -1.8288696098245456, -3.404556162873548, -1.7442804879766685, -0.5526018346762924, 0.05853999225480512, 0.009559944557591057, 0.0401709935480611, -0.08661060305629584, 0.06669844258293126, 0.01927309525755377, 0.007006836456535236, -0.5469173698253821, -1.3367030786315295, -2.3299710194485277, -1.0223854592895132, -0.12645338581355936, -0.18917071418869358, 0.4191470572588998, -0.04009982618799056, -0.42315979304369733, -0.26514564463526524, 0.8374426527528598, 0.10398385617455895, -0.1799997025693856, 0.2505268183861127, 0.697786398724203, -1.2991217249608529, -0.7001152853899797, -0.08508433662375323, -1.45461584861377, -0.6766766703890813, -0.5660232662807894, -0.2071874086137289, 0.00794694726081286, -0.05840591045323213, -0.017044391839795725, 0.09809277765642163, 0.3251747060995578, -0.19338083510075593, 0.6673995200589236, -0.09658628868091394, -0.006503352750251698, -0.9657664531981732, -1.8651929025469982, -1.2171238155458552, -1.4705520175549907, -0.08051565129251176, 0.18467624888817766, -0.0365840139982901, 0.08375494065955423, 0.8286338571473848, 0.0037817725554148696, 0.7432513729371835, 0.19971453713186668, 0.3652566861930089, 0.8972273798777961, 1.3974741067660124, 1.2986761601704313, 1.7492235466828427, -0.09185250989522346, -0.22546368049402715, -0.2197614426793488, -0.014520658815372442, 0.04724513085900067, 0.002984338879802026, 0.5930669096874279, -0.08778336123880054, 1.6115562634985654, 1.0796776513320412, -0.9487865644475989, -1.8105798283708554, -2.662017147718397, -0.5379712297672222, -0.05971390793487154, 0.16353380497653525, -1.2493954752782193, 1.8119446647607247, -0.051577613894102925, 0.4804367980631886, -1.2599745568524994, -0.08234361969018995, 2.000674692071795, 1.16745484752385, 0.1639676332098325, -0.1916114119086798, 0.6705353080013109, 1.2178982994754295, 0.841939042412763, -0.6203270338220565, -0.2752880529356037, 0.025539289727010236, 0.04360427210593057, -0.028251372127047668, 0.5187161238533616, 0.8825610023318456, 1.6630769280888067, 1.0807150692760725, -0.3627093979949796, 0.4864751775974603, -0.9980540770507688, -3.2397069283284567, -1.9628445852999732, -2.1031663587764045, -1.545535944553086, -0.09761269601024837, -2.1593497703069606, -1.3216950258969473, -0.12821611028496308, 1.2843992218793943, 0.34355378318997537, 2.50352323384347, -0.9818248178558902, 0.6102403792012059, 1.1902088246178513, 0.9984708269556812, -1.08679126805495, -1.1169925431837981, -0.16112951522952845, -0.059227920970658016, 0.05207120581298354, -0.04142766436972346, 0.19797364231413409, 2.5308962261939136, 1.3021548052998555, 1.5362779449702904, 0.4494840217202577, -0.17647402996679146, -0.09893817980309264, -0.5824860989104437, -1.7164171239948178, -0.6558172854677675, -3.176602454763814, -1.7929033651053783, -0.4831910561611988, 1.7879565732931446, 1.4730934476858388, 0.5621251550376635, -0.3969620139949646, 0.4201178594831973, 0.16871578874423565, 1.2703207367059477, 1.8060162084627553, -0.05986539471495478, -1.5009327618759265, -0.984405458592858, -0.05541659021641276, -0.040654387028336285, 0.04888024258635994, 0.049044753285201956, -0.43353293360651945, 1.600778654921962, 0.870016066625965, 2.5504185165524684, -0.13401674355978693, -0.3027710645974692, -0.40376153243952284, -0.16538739135864688, -0.5261914155910576, -1.0618435447170542, -1.2315173151045233, 0.4071639002798211, 0.10795646030378987, -0.00494052366671217, 0.5794238896853329, 1.2774131902960615, 0.5874953709103921, 1.44593511443147, -0.48613240934962443, 0.7064202444413225, 0.7291260300485851, 1.6846558867044616, -0.12776240182800827, -0.16605353285581007, 0.04845206324876296, 0.018824692246355385, -0.005330437698939677, 0.04771129646234877, -0.4840933565803255, 1.240634747039226, 2.4523337507925262, 0.5862184417063451, 2.694869751956697, 1.3880940775202526, 1.5730040265439065, 2.2762632401657696, -0.08029244204797623, 0.3727391994543746, -1.6861688725327588, -0.11546966150350134, 0.539750684215262, 0.19382563758783558, 0.5777880441230935, 0.6976618609573927, 1.356538073801612, 0.4024328704670185, 2.17772636013561, 0.16212329302484368, 0.18507574444018704, 0.8244166844315859, -0.08818848961586222, -0.04995318595660655, 0.010729754821900334, -0.0530164825565064, -0.03591419043815305, -0.0537221722889851, 0.17174637018881045, 0.5834139823572829, 1.1567602075660004, 0.08827273875278441, 1.0078966022620204, 1.464135019415678, -0.1912403770704616, -1.3690412490232862, -0.22581778382473394, -0.06602931147285294, -0.15685888580645743, -0.17941743478305688, -0.24543868603436725, -0.07403335309487867, 0.570372220302128, -0.7506869378409056, 0.5615768083029367, 1.2136428404893027, 0.10079375206109571, -0.5738126201255189, -0.1618877764041316, -1.2164077181257822, -0.5653341855204044, -0.03437076402407328, 0.04288719516668563, -0.0145030908269096, 0.05934720833309434, -0.029606522198434588, 0.42629970922041616, 2.2478124215397424, 0.5349119198350135, -0.8356761224950673, 0.5956384658722891, 0.434739425517833, 0.3528433930861702, -0.36832911112106065, -0.399101770980767, 1.0686283603842683, -1.2869044998627528, 0.09423526506548714, -0.3266395760387466, 0.35941984922504405, -0.5164807837059747, 1.0364864826899516, -0.16670443893160541, 0.9446457721979222, 0.4805626785123675, -0.5192040945450458, 0.6428375569397177, -0.22046282665751496, -0.5427588694419538, -0.16409209834156668, -0.017454051991175036, 0.0023834601594185795, 0.05909394791401061, -0.003680276245682401, 0.3266435986241114, 2.172274324001058, 2.102726239974811, 1.142465713289659, 1.433722114358068, 1.8043847259519419, 0.6104743372186264, 0.852935695736062, 0.5411316369149669, 1.1216437680214275, -1.4065220960732452, 0.8524797009752487, -0.793139418145983, -0.5672065902660482, -0.24764387123235984, -0.5536813138950861, 1.909604612560435, 0.7109569076484077, 0.2157212929708851, 0.5012791014076677, -0.8632701647282126, -0.6900400789699389, -0.49615402291195965, -0.11471137002422575, 0.14419762132146832, -0.024702458943145482, 0.04629617865718742, 0.012205367609936457, 0.09404674093465418, 1.4033023316558535, 2.1879477420530025, 0.963979010350625, 2.5427892969517916, 1.7880256569246502, 0.7402606442681982, 1.2121639844660332, 1.9967364738724775, 1.1969812891685436, -0.22129947634566063, 1.4918692335176686, 1.2225573949554658, 0.4928394224249986, 1.128208674058731, 1.347416134933489, -1.0425470462501933, -0.43781888949252035, 0.343951575812252, 0.29371194739706336, -0.15513128626350992, -0.07093166140607905, -0.2438383197891566, 0.0006851658116624401, 0.012662140883397552, -0.0048041468223612716, -0.01656738878554488, 0.05695097980992428, -0.04603401128028725, -0.3297352939466517, -0.4564759954800143, 0.4651544791115174, 1.7407365246901085, 2.3764323485809458, 4.067950010160919, 3.4419222043613282, 3.2450490081537864, 2.9705346934706753, 2.585089159095612, 2.083825069042121, 1.153618986956555, 1.0548461610586644, 1.58755772656974, 0.266485556788374, 0.49799384989712486, 1.8814512084911448, 0.5396360283670417, -0.13180100518258472, 0.022463964624012213, -0.044344374392659675, 0.05638661997006275, -0.002149721542576845, 0.04122170155917962, -0.027003422144347172, -0.011440578782218248, 0.03615737683677342, -0.020550817503127074, 0.012224924468922385, -0.042264643139695024, 0.18496169431640747, 0.26003228350365876, 0.4814410921471658, 0.25564140259412543, 0.31332440584447047, 1.2166249832168903, 0.8422000329145257, 0.09572762538738737, 1.4346624515177524, 1.347857167332368, 1.019300785940306, 1.1177496408730456, 1.1169476921071675, 0.7020712803742922, 0.41308291591548457, 0.5005168324122706, 0.1702018792218188, -0.02157191202632196, 0.056253400491257946, -0.052652546240965985, 0.02821048373654675, -0.00860490320102053, 0.03342497728017867, -0.055832244128422095, -0.016111880570359845, 0.03672491708936888, 0.03540172570401723, 0.017411680597589824, -0.03360305008462586, 0.02144903991164719, 0.024806709560202575, -0.028421503912989206, -0.035124158512757714, 0.02811850742600172, -0.05493763660867829, -0.017859171490275473, -0.035552509994118416, 0.046694546258136654, -0.054610029474832796, -0.04145994378654924, 0.03497550564848094, -0.2155591268504034, -0.05961091742269857, -0.016476454958900058, 0.0033341171608926162, 0.019021194901565994, -0.039435613306860726, -0.0482703446835473, -0.025610512719017993, -0.027178916126937756, 0.011247237562528462], [0.028764730510019015, -0.056678616967458496, -0.03026283818609723, -0.03880056167639982, 0.0483478303252976, -0.04674146004577227, -0.024737914900237475, -0.05897581244147307, -0.03683334281807991, -0.020822946049763515, -0.02000543285454133, -0.029138072189198207, 0.00932322838222871, -0.057427587149638464, 0.013867028666657275, -0.0506105875216599, -0.007085995711056829, -0.016363610902789226, -0.00835257586553876, -0.039724859583061725, 0.023448129282597305, 0.05290662892502267, 0.024086259998849904, -0.037567841170051575, 0.03810546578660133, -0.03664620851101047, 0.001378382125146814, -0.018245506136811376, -0.02867858820605218, -0.009734707458211658, 0.001139426258990349, 0.02901992774597742, -0.049330235947135495, -0.025199072921239192, -0.2867327738079492, -0.6766756576108602, -0.8719847798621737, -0.21697567172422866, -0.012279066923855567, -0.30657427031454954, -0.9617878512232557, -0.49181572991668193, -0.14070902086934303, -0.5886839965496762, -0.8131245225533525, -0.3746031181424133, -0.04583398321738588, -0.41134418635662634, -0.2668821843373343, -0.1568703013120178, -0.022661222778173187, 0.039834778669147614, -0.03320683954447196, -0.05991587627524738, 0.012489447523704844, -0.05587975263293007, -0.04998209001663562, -0.05189765735573135, -0.020995970523781847, -0.015125342375782627, -0.013312327789778491, -0.0054213723263223795, -0.27650592012306147, -0.9922732785272484, -1.319995250659608, -0.7580156262490756, -1.1501738533651886, -1.8717499768214416, -2.6275139517382997, -1.5933101286912748, -0.48808199767128074, -0.5434460311519664, -0.8024882222039222, -0.6938659218054523, -0.6897940392448453, -0.6330549314077621, -0.4183864724307528, -0.49287060813253075, -0.2432689326096707, -0.07792228761814485, -0.051733409831402344, -0.005921857157605764, 0.026277688492707646, -0.048609212023931474, -0.03531741249722577, 0.029501597642042618, -0.01532185926458323, 0.016959454814210365, -0.07474432807925462, -0.029733915322052447, -0.7471862385152563, -1.1013627693865573, -1.899842004179908, -1.9655571482363339, -1.7425041350001451, -2.578218033620996, -3.8688322536842628, -4.4252757795735445, -2.6065315401994584, -2.931547721334176, -1.8900130105587514, -1.0733656567711334, -1.1896856969362986, -0.11224619242441389, 0.005759491177697321, 0.2936217664746923, 0.1843982940145028, -0.0752307976329161, -0.059429443519952704, -0.02375233919275327, -0.0078051977655193075, -0.035705808417642176, 0.02079508035534841, -0.05480633949714846, -0.04428604787438737, -0.04514354640033237, 0.045481749900461124, 0.20360050703094956, -0.6948808958772656, -1.0493097947986132, -1.3942283163206919, -1.1463676968486871, -1.6708782039704286, -1.6676081207029125, -1.4876697685127922, -0.5443092702053146, -0.7533584646173622, -1.3884235392426678, -0.3554571462172699, -0.7935235549679126, -2.1671764495335717, 0.9318058180802237, 1.6033347985696464, 2.084172415763389, 2.548625406076511, 1.409891958207877, 1.2234408568939437, -0.09456880609634975, -0.21232265658016597, -0.06664533526752622, -0.05199303830480001, -0.005133273807029624, 0.05834507443013118, 0.03329713390483653, 0.1365247800336294, 0.3081381941108188, -0.24054503679577985, -0.5113247178974392, 0.36132726961293565, 0.7925755644471022, -0.11144320672442364, -0.45555675125442874, 0.9464027767785669, -1.9019839832377663, 0.5920393745744565, 0.6318491283186186, 0.2992600668225577, 0.3089627277373874, 0.755835178240935, 1.6440991342844633, 0.3301893739290335, 0.5520458833016868, 1.229649293006299, 2.5603866922934024, 1.1137352541643941, -0.3648054860294442, -0.2880880597870049, 0.0017781063425032495, -0.055488118382527714, -0.04567581292941485, 0.048143044693008466, -0.23777940594414576, 0.11490731767294292, 1.1506620092696336, 0.1119774918218829, 0.8240794787377852, 0.6160774394352833, 0.3191789283102717, -1.0322156544635293, -1.182098776302259, -0.252088091662923, -1.5964050590364076, -0.7387339387851893, -2.124882594396463, -2.2630141882477304, -0.5296636319325415, -2.466384255042382, -0.31670383864706686, -0.7596928422712731, -0.22788214886439997, 0.7234283207334284, 3.0699203302800284, 1.0038664153560979, -0.39212246714417875, 0.2570892893127436, -0.052609942849298985, 0.04557426334015012, -0.046032458803834476, -0.013588343001764092, 0.017403273836350715, 0.6231394663697642, 1.69325898136848, 0.7303884683439454, 0.6336042446978404, 0.38022732569116946, -0.07437451755876832, -0.7162876461561379, 0.011860938957407849, -0.7711854783360639, -0.002120466327360321, -2.190287459185583, -1.6168715616272704, -0.9093917285075732, -0.4993051149775118, -0.9289219999513505, 0.7121721591563325, -0.678862897992321, 0.981946638215704, 1.4448370983327923, 1.9900535773500296, 0.06015789513580255, 0.6242830637528515, 0.7573882533505648, 0.029994720401609012, -0.059820047209606014, -0.12324252580286185, 0.19275276766864366, 0.14371028849794434, 0.45089507526850336, 2.052220547979278, 0.684388050849062, 1.5752721119847177, -0.5061396605790713, -0.19023063609816993, -1.304052169714493, 0.1017974455325162, -1.3180026768918343, -1.644321733615975, -1.4759927785109441, 0.16651088250047968, -1.923810989488891, -0.9516970835841718, 0.10089381057669462, -0.42857800168245297, -0.6641397672542666, 0.5623661483733751, -1.4399875674307658, 1.3494197361582017, 0.3307939617151439, 1.2395047538061799, -0.4839980973800684, -0.13396945263383542, -0.055237537910412464, -0.06397193020126458, 0.1541991889170476, -0.7381493397467633, -0.8706790300209115, 0.7167761107786902, -0.7994675456757608, -0.3219696318762672, -0.7618708830605465, -0.7583795293730068, -1.7442543479337262, -0.3178432773448868, -0.9395517648302798, -0.15116309724053675, -2.0947485995840096, -1.369923367266647, -0.13126527438904698, -1.1621740643190495, 0.13294897643922565, -0.7605914015131933, -0.18773748048385389, 0.13448680605122026, 0.17574623140978968, 0.21704954886060268, -1.5658421480776448, -1.234144200370302, -0.2664322960950938, -0.12148119770096749, -0.025480997426820792, -0.11463806144206955, -0.3434804364913922, -0.9559273356573867, -1.1989786112772376, -1.2698964295271287, -2.2662507392978974, 0.12460219646495366, -0.3274779991002946, -0.04079738478741834, -0.16709660531909115, 0.03790874617092788, 1.9824359666500975, -0.8723571648320866, -3.201691833062622, 0.9270500681009648, -1.3533810730787466, 0.4340672709375702, 0.17270037145287576, 1.2183189852970697, -1.6948778111478624, -0.6321466050433981, 1.0411350842464264, -2.403909505763657, -0.6355074655743917, -0.5874527886822409, -0.5403061110334528, 0.03250901548919968, 0.010236532579974894, -0.1453755286695466, -0.43111407661447676, -0.8642245789922276, -0.7973540298722717, 0.2699317666169321, 0.38180293357477213, 0.40095809237579216, 0.4210905500957716, 1.2345263009246188, 1.6227383789798286, 0.11491429812156426, 3.4185946626682338, -2.999868344287303, -2.14746596855406, 1.4610098660494646, 2.3362241446127596, 1.849947389879703, -0.8337616836663649, -0.05013513556671255, -1.6460559537441355, -1.7057940943396328, 0.19781995313885975, -3.280250646489982, -2.3744648931755195, -0.4309250577005097, -0.024217669862671553, 0.051242213592750885, -0.04748832861267364, -0.13186176745760275, -0.5326293607774366, -0.9686690120813024, -1.2879113923152188, -0.12749106699701435, 0.3334782235221398, 2.421230513833572, 1.0501855209781197, 0.5476786046458166, 1.3297448762921606, 1.3732417577637086, 4.370494502792917, 0.2590224504442738, -1.3152676461324466, 0.2620293076400886, 1.968454170204471, -0.3253771845099589, 0.42781007008649896, 0.5419237967330569, 0.8119238365558906, 1.1522716996228572, 1.1479852916892157, -0.3982005368269713, -0.5792854234171276, -0.5267760354396878, -0.4818372383414602, -0.056814544921485285, -0.007838438414755199, -0.0642428069322999, -0.31518495373746125, -0.7515842890766115, 0.24996067673404573, 0.7671484918315566, 1.274265509900422, 1.074088091559812, 1.3320841965466843, 1.7521354391158421, 1.570297079122314, 1.7868950927294787, 1.2976732630108052, -1.572573586647767, 0.6488628879287784, 1.4597674807945122, 1.1616016577552652, 2.2980955648320647, 1.9785820791540314, 1.1129928527242765, 0.412980725704186, 1.2140796733377943, 0.7472484202071578, -0.6567076091149358, -0.9015276262415732, -0.17386526504698052, -0.19763751660844242, -0.17130332892113126, -0.03362172729503643, 0.014973205609149193, -0.02421906735605691, 0.2667506148693277, 2.7211358626527957, 2.0847284601567564, 1.1910346438748352, 1.2096592901082677, 0.8788651604457642, 0.9292457529368541, 0.41344358943826526, 1.5095838105567676, 2.05264267502497, -1.234387231291902, 0.5025555767690454, 1.18322567175551, 1.326804686552068, 1.4247443225425818, 0.7309575375026953, 2.0546743120255915, -0.3896615488744412, 0.4081629011336223, 0.3196190867309544, -0.5490509237551242, -0.22267264997020197, -0.2217500448188027, -0.6295889203945567, -0.03263269117040145, 0.0218672177849054, 0.0056516685905490666, 0.2584917586066988, 0.4307368020746588, 1.5437295492714718, 0.6554066981221919, 0.8233802135864318, -0.30168639353755905, 0.6479743108072362, 1.4847430338447976, 1.0688798413520777, 1.8060835636368475, 0.6757610916471212, -0.9324044179114764, 0.5772815093005247, 0.6220259329775448, 1.659976058951971, 1.4976193095598962, -0.2209964304359563, 0.591833112589538, -0.675836428006466, -0.3936644827197248, 1.4507592116737558, -0.1607944255567784, -2.3525394843416283, -1.033807602542819, -0.22793881283820056, -0.28388181823275643, 0.03608452288062765, -0.008969873790251437, 0.10135346228138022, -0.5039914720122655, -2.088131667668753, -1.4541382368652267, 0.4960988542382786, 1.457743740048257, 1.2653182140028696, 0.5870138209107658, -0.4210465834742123, 0.1904005619260097, 0.6198181683478137, 0.35517771909964835, 1.3594074967270748, 0.9815376630696846, 0.8601885521501196, 1.6112038677781086, 0.9435568677333, 0.7731169411194316, 1.2973206482556983, 1.262212767652539, -0.13774418885988118, -0.2221290521804108, -1.2728790342482235, -1.025030192600572, -0.34049734443086627, -0.02079887246088727, 0.05690468045439899, 0.04670439336211836, 0.22518654013208964, -1.2428804080132398, -1.5367375130821355, -1.5151577342150404, -0.07689608273762004, -0.09293058006345134, 0.5687554757696995, 1.0676664924582175, -0.2594762415213171, 0.7758255566995608, 0.8966166332791474, 0.778961316182463, 1.7402650057630369, 0.46605873740923176, 1.7637105592173308, 1.365949743120502, 1.2904380273177323, -1.3626077484376897, -0.18890139590549038, 0.8761684866789, -0.2550289315874755, 0.19526644263700393, -0.7469698253501961, -1.1913602362612339, -0.3084484726320947, -0.02550456397907165, 0.038421930252624414, 0.02924523305966449, -0.08173693776968248, -0.6706287499592463, -0.769065427145621, -0.2654019792765538, 0.13977029906275173, 0.24805744376635652, 0.42054250162132434, 0.5817829543818375, -1.8128374077007579, 0.3035254803084455, 1.0764055467773654, 1.149779890843578, 0.6139881992233774, 0.3590799844239152, 0.8140655486216051, -1.533973390621198, -0.9318478783701301, 0.3274457296854668, 0.3418171757175733, 0.4595186074669182, -1.9454698395898133, -0.8469936016387567, -1.3518271042698236, -1.405753234944732, -0.2870334240028476, 0.051978910119765034, 0.053198803027921626, -0.04999949638058889, -0.046780374195363614, 0.4408912947884726, -0.4750595587236318, 0.43957509970967806, 0.6874134632754448, -0.6028382102565049, -2.005097461621263, -2.4905616036341067, -2.407076410034634, 0.48101448462528573, -1.9482302851675162, -0.12222169126553864, 1.0439802415500024, 0.35753949069422974, 0.155366810506563, -1.3359302398791792, 0.9208445460217681, -0.36453032561006876, -1.4416529552813653, -0.18987066640448103, -3.512882064858583, -2.2463999191825144, -1.2589114864689273, -0.7885077172128517, 0.03441146619363236, -0.04350944272530868, -0.02563428130997593, 0.03578978864464734, 0.016345014105009173, 0.36743846878870795, 0.41445326330585014, -0.9483839916764123, 0.3970373004944644, -1.5530321503552502, -2.1510262257398822, -0.9294832310338695, -1.9776027827503329, -0.318854493208076, -1.0719402049430062, -1.6054112870282045, -0.18814495610299703, 0.38240594384586934, 0.1709300919477759, 0.19867256915426645, -0.25102689390545974, -0.946634316707922, -1.2199875341143886, 0.23820133610394068, -1.2340540699068157, -1.1468208602473011, -0.987179869867002, -0.8579596239477468, -0.014005510663816653, -0.05651481085312436, 0.04627931976900919, -0.018318556797737952, 0.007072847904972207, -0.0400612500264335, -0.09190947538684413, -0.5919637837535598, -2.6758408228889157, -2.648616753719632, 0.2576455639329884, -0.4184453238534172, -0.2628199313955295, -1.2021816274402186, -0.8856340557822968, -1.5463459255810859, -1.1327675565828081, 0.41511709144620096, -0.6683497844732493, -0.012603900797826514, -0.930691350783922, 0.45191228901801156, 0.02489401573395092, 0.4825627463743715, 0.3287046721658723, 0.16290122875071478, -0.6867862419538687, -0.6718758257425647, -0.0020419147382602504, -0.0013591163558445626, 0.005394533647536892, -0.05556203785926496, -0.028473496743210515, -0.26060364157490284, -0.4299511222234561, -0.8327917467619381, -1.2059199730955747, -1.1394832003202235, -0.5678939525436457, -1.3696363717389106, -0.822124013270129, -0.7611914581954967, -1.556160747617812, -0.7553399003958164, -0.5138601272039922, -0.41279229468176387, -0.05272068756651781, 0.46149661690936766, -0.3359889426934835, 0.7110559628592423, -0.400213226823763, 1.7933442259102867, 0.4341000623069545, 0.4790435168038324, 0.009928136595918225, -0.2645553985821141, 0.04096491788236753, 0.025208074993919277, -0.021361007318816128, 0.05070805219340066, -0.03982436138605376, -0.31939302246031354, -0.4537985057307039, -0.7613985052451093, -0.217214665997095, 0.3209781553383222, 0.5671818479295536, 0.29746327677044937, -0.08338998657879043, -0.1398468253889783, 0.030766055435463208, -0.17681178111187265, 0.26417048308721647, 0.073472554258194, -0.5346654160512463, 0.014864668519236013, 1.0507064305191303, -0.25901754784923364, 1.3122714954678003, 1.920476043817487, -0.5216821922516265, -0.5531816276533461, -0.5133990355518953, 0.022702472722812832, 0.007782605665110617, 0.009200550868387405, 0.028793062515127518, 0.014659526244278534, 0.04128331070049694, -0.08835395930859287, -0.40511047276613055, -0.5734744725474566, -0.027521603538395244, 0.34887015008710925, -0.40641905049053567, -0.14544328994049563, 0.00823689815654477, 0.3220740911833392, -0.8280175446384088, -0.08605010613111987, 0.2800985504217816, -1.5396843999314556, 0.5693606208266894, -0.5599248773227355, 0.6044098984488832, 1.8322244804362817, 0.5191105157141721, 0.5445568009004415, 0.6323305399078246, -0.2620447087934532, -0.39658761929926745, 0.08597599023256129, -0.012789871638497013, -0.04551068553992935, -0.021736698376779544, -0.028511602288267685, -0.05973695099599519, 0.026069631532844043, -0.017794761053490843, -0.3684131208617774, -1.1812707416982704, -1.5479135312784047, -1.6375689948351566, -2.241257832094363, -0.3619508227746358, -0.339656759566219, -1.2322670253712278, -0.4988534607656865, -0.8822102989410668, -0.8402685071234587, -2.1463514631154057, -1.8618726950666882, -0.6673053889573326, -1.6809746137092372, -1.3569565468395677, -1.14210008724856, -0.2936184156099516, -0.028226852097049573, -0.29176499946019663, 0.05729833499526882, -0.05297641125382442, -0.03964419196521156, -0.030044923607290854, 0.021996314817922885, -0.01660250380976297, -0.022600303773795134, 0.06718354254848412, 0.09334679382721829, -0.09698681953479975, -0.7147303767272629, -0.8439007952550995, -1.9269581536655374, -1.7692487136888662, -1.7831886328440418, -1.6712944629099862, -2.6819713257630022, -2.8470307828736714, -3.0493386970523746, -2.460466168105208, -2.623271905518447, -3.3497555830790926, -2.2707632978419223, -1.2606192927038842, -1.2797776739845133, -0.5601939680216229, -0.008223984541611086, 0.008517291809582134, -0.018426379521298913, 0.02635761630434677, 0.006259527467644521, -0.023018193812632683, 0.03730361902055769, -0.007811289837084276, -0.01816514469468164, 0.02501732970392058, 0.028538765859726506, -0.08317383358432569, -0.18860463622931678, -0.17511562121820395, -0.11595212634277169, -0.3246768747126379, -0.25188715426327624, -0.020638121385700488, -0.2777820723246514, -0.6147050891856742, -0.09192924327049479, -0.3034131872484493, -0.3546049818473335, -0.44096995443987874, -0.3758785076263039, -0.04369712664849703, -0.26784442397709307, -0.11663397770432701, -0.05598669031470149, -0.030267630160364826, -0.04520302396439592, 0.042531431865074465, 0.05862648678531647], [0.058678256153957095, -0.0522386921427683, 0.005780134692291605, -0.010264706905029224, 0.04793534182394392, -0.018771556663448742, 0.02284536779692556, -0.010431900990328667, -0.017643793864307845, -0.003888559444198754, -0.041851456671144774, -0.019226280387484376, -0.031080900362721004, 0.03660951020380836, -0.055788204655521006, -0.04198649700654672, -0.026337875572978967, -0.018643904417361593, -0.05164093290480867, -0.014424533098606897, -0.04849922120223789, -0.0539012288285636, 0.017065360765845236, 0.04097136181643232, 0.015542893387208503, -0.05835374818312091, -0.006820499935246832, 0.03361452578564075, -0.0025689886304418943, 0.05375225049364857, 0.05215464465654905, -0.019546402057822133, -0.04472675591280013, -0.003342411655317082, 0.052399772299645014, 0.029059238422639036, 0.0007175483494560736, -0.026511741246093817, -0.0495044890599043, -0.03812145028997807, -0.0015899472583141006, 0.05064900705291976, -0.0583336951628335, -0.016588133853084573, 0.05185307257331999, 0.0203994590075402, 0.05927849384156107, 0.02454640970877578, 0.04130437988961112, -0.020540338441320624, -0.04893176425867072, -0.048326151771966364, -0.04267228701150136, 0.04476789718469036, -0.03753431011688177, 0.04717378461900339, -0.022056135446444324, 0.015455943196029304, 0.024814609945061183, -0.036497252990696546, -0.05821343184110429, 0.008532094940174345, -0.04191222287819521, 0.023456430012204724, -0.006121558238032183, -0.05832554504119109, -0.27302691890543496, -0.5408012722775576, -0.4981347615262368, -0.5108302258287193, -0.831343845755883, -0.2816947651826469, 0.37437880985772515, 0.9209289339747347, 0.6396730314423168, 0.10032825448853944, -0.22480171240262461, -0.13313713070143376, -0.02821959822664872, -0.08206320091353672, -0.02708762451781111, 0.0013290487081410313, -0.02589314292388207, -0.028212972786425476, -0.02679323416275408, 0.037240862872393296, 0.0330202058941018, 0.03125284618833907, 0.12033190934789624, -0.18508599531608627, -0.21986883809276347, -0.44596708969317644, -0.1483147392703264, -0.1063212973296695, 0.014488990502964122, -0.614093558396037, 0.578048617210268, 0.7634370300447869, 0.4919094053078734, 0.6742101181801319, 0.31182035739798386, 0.8164122628376153, 0.9362514617172957, 0.6590197154718469, 0.9965540391877918, 1.796811601764385, 0.848734818432932, -0.07724089814838388, 0.6175492531710912, 0.42310934341271267, 0.008449243093301945, -0.006178247740517742, 0.048683374666057475, -0.014930578011855905, 0.015610178209189751, -0.04094479168717084, -0.28147361933855286, -1.3273171488786497, -1.2770646414109543, -0.6900921697068251, -2.0075916268196328, -1.0046405064091357, 0.17461141031246985, 1.895820970852853, 0.18998517820616007, -1.7730311332089113, -0.937452105129565, 2.31427278289484, 0.0207484261126855, -0.5206558507033695, 2.0983871634039333, 1.323501548228814, -1.2954810717026557, 1.3032547028745014, 0.23710975381436944, 2.0864103541270573, 2.010724256681789, 0.8420795399594779, 0.10226463389287788, 0.016812125310120843, 0.04199843324264421, 0.0007597037168214291, -0.04324706807292908, -0.4866190210401598, -1.5192163365032487, -1.5527816605694018, -1.4455387153786938, -0.08973315203191415, -0.10304066446752883, 0.21512290190029656, -0.35717832790650056, 0.4186835707182246, 0.965347139259516, 0.18600884019313585, 0.4340826308656657, -0.7919218423785813, 0.9333150997628376, 0.5733086270238288, -0.17795472205948987, -1.940897130408476, 1.954987868919935, 1.0069321912157299, 0.9043220146650721, 1.3537267782237625, 1.7603233075588143, 2.1183203552051157, 1.1668603085598888, 0.1229992311712757, 0.004880995542609082, -0.0376880195983801, 0.15914011080394336, -1.1811800362732972, -1.5966104802904422, -0.6610303419382575, -0.002601432570543391, -0.37794729269228855, -0.7055617928559339, 0.07716520607802634, -1.3869606412803803, -0.21455097949887128, 1.538684955947986, 0.4012385973684557, 0.5235527100232406, 0.3053956267254575, -0.18843789308894043, -1.1088260843272386, -0.7224420918492622, 1.8437386593407004, 0.14702588864721922, -0.5961024985331024, 1.1243714357214796, 0.17650529649713298, 3.2598982201945366, 2.466930205880812, 2.2857621062030393, 0.4451699485827829, -0.05232085178106567, 0.052760896041952915, 0.03979605606253728, -0.9519250958657385, -2.3129585712988643, -1.0259146814234743, 0.09249204550760763, 0.0033668681151097918, 2.1069311381915194, 0.4545587797103505, 1.2151291431041655, -0.33721354095495726, 0.08330789852578688, -1.1848961266851543, 1.6659045158687986, -1.5387004869419505, 0.7302420512883726, -0.09298587243085216, -0.27265396498810157, -0.5384253757671367, 0.6351005283800576, 0.3098078349257668, 1.6205736104343051, 0.1365554501537671, 3.192889473626748, 4.024932677296791, 0.7497070808390941, -0.00113571726402544, 0.030661933516797663, -0.0005082070632992652, -0.09241890372172094, -0.8718132833283924, -3.2101519282747595, -1.27301777538096, 0.27805639387827663, -1.1816827060016062, 0.5204817583762953, 0.369765117983178, 1.0219157835760155, -0.14670717639930606, 0.6748472276690322, 0.09873024324146812, -0.8360830646135174, -0.8151763120866298, -0.13705846062992963, 0.3597418025962654, 0.3947760620369415, 0.4809054939241156, 2.740035292918126, 0.9614631963027844, -0.11965011148446561, 2.0668538518441038, 4.911809332884807, 4.231659276756134, 1.5815093683778765, 0.21874973734586078, 0.030103807088971313, -0.03886119452083347, 0.02225517019241241, -0.930270818516859, -1.4872278889222774, -1.8178404664363919, -0.43655451602422085, -1.068863100793039, 0.519571346086783, -0.08403109505309223, 0.2829122610342687, 2.122835536139418, 1.2980740497578078, 0.5763357114335647, -0.8258334372058639, -1.2306720089825585, -1.1972770603240415, -0.7260123253586754, -0.17646584664914083, -0.8592764026961517, -0.291674149758172, 1.0631066276407553, 1.3520741554450635, 2.533248057177206, 6.247375788361133, 3.9303824563686995, 0.9825986672668771, 0.18332355945704243, -0.05254370888703546, -0.016066838314672698, -0.03138091993168697, -0.7760478736690624, 0.6517759867763778, -0.8538306537702789, -0.24496328386227273, 1.4896427380675972, 0.8426656355825747, 1.1551280102262307, 1.54261295320596, 1.3357857854719033, 1.4175156759648524, 0.7457387121547632, 0.5120222434187891, -0.7146901900267688, -1.0634753347462673, -1.6305686913413422, -1.1192165152255948, -0.9265924700923335, -0.5302097097583708, -0.22896967562350745, -0.5263403875622539, 2.959224310763082, 7.698406824593658, 6.5171807276647735, 2.566218632337688, 0.017726491969488365, -0.006592193042548981, -0.051297623287028554, -0.06122368135515033, -1.0475654919152977, 0.42160103622692974, -0.7192003572340266, 1.1894384514992196, -0.7139904276565011, 0.2855800586624001, 0.10290563152684472, 0.3068326357803547, 1.4713485752606459, 0.6506936444471376, 2.134621849330574, 0.4277502491977839, -1.2184928945512108, -0.5403344268767581, -0.8555993191898346, -0.11255516013879674, -0.6148439843746658, -3.006492917958445, -2.946235229201851, -3.5361210028377354, 0.7322632340286603, 5.00776366104778, 6.088695852096792, 2.137038803584302, 0.014769853636869463, -0.017017283200079517, -0.030059865591433636, 0.023209481858359193, -0.2637936330694915, -0.41964844780791677, -0.13109769700843166, 1.968709405823659, -0.8556423206023621, -0.06977219587816902, 0.045546734279281756, 0.7265569479969204, 0.442475448192868, 0.8856214019487216, 2.0263000796838413, -1.7248577302836394, -0.12470624968874429, -1.4988383350857202, -0.7338916717849355, -1.0265847004286877, -2.2712904697846987, -0.9224611206306759, -3.843734922935117, -5.520545724830175, -6.220426568706992, -4.909070950348273, 0.033180030789850545, 1.1038671324007796, 0.04606703079944097, -0.023121166327856053, 0.04606187966776132, -0.03206603308836186, -0.057148094444755076, -0.2780368751601088, 1.018042894753544, 0.034390620450126225, 1.248968757071588, -0.34917223573558986, -0.4119318270438903, 0.4186520169131892, 1.231148887830179, 1.9128220435655767, 1.946859705515842, -0.5382353022242504, -1.0560071854125672, -2.604701658115671, -0.20701993448275618, -0.5658616647285613, 0.30932427241949206, 1.4923082159423144, -0.23789720770804035, -1.4459224339769245, -4.073502403287532, -4.316032518789472, -1.3379473481902697, 0.16182849932229076, -0.07160430546028357, 0.14460208642308686, 0.038119546155762504, 0.043057695998795706, 0.05874857553081633, 0.1851197292231176, -0.19180183992516853, -0.3679998886049013, 0.8598366431569989, 0.5863156637545889, 0.33712999795066523, 2.4610585038768833, -0.42296776037405903, 0.39288596217514365, 0.30320922242911535, 0.3507993031345901, 0.012874165973367102, -2.1053084119156122, -0.5911624443494526, -0.1769533815847259, -1.3899127877443587, -0.2932081049146384, 0.11238524138005435, 1.8693393767176618, 1.0307386585542389, 0.33403938241773906, -1.4856729978358125, -0.21737360112114207, -0.059324390272520365, -0.004942730344686251, -0.016997033406180473, -0.053668899103458075, -0.06441857788638539, 0.1056873280234677, -0.7959783648688759, -0.5805244522060405, -0.788770176197617, -0.3653302398218833, 1.0777872451507235, 0.3707473696829826, 0.25076833206728755, 0.18744634908321822, -0.503559325213575, -1.6151756956506254, -0.9047509789993878, -0.44305260606474106, -1.7824380314890447, 1.4190451170497647, -0.3583333945480411, -0.08770999686075012, -1.046755424774006, -0.383061727516948, 0.7587221353020092, 1.5376933930181593, -0.677756349325791, -0.42248264405901953, -0.046536525934166816, -0.05944801262003226, -0.022130710808985668, -0.20240531596219682, 0.5637729231978957, -0.5876485028218392, -0.3032709116750174, -1.0351944489748135, -2.870219636131307, -1.0571889444787517, -1.313522607653715, -0.07975869985995931, -0.5440780518630834, 0.16786258476330293, -0.20139009778679673, -0.586521299498177, 0.0763809895204936, -2.1924013329414787, -0.46921073612550707, -2.0221911096307013, 0.6563233042599751, 1.4026345633074104, 0.3050718026924628, 1.887748810766439, 1.3369188251291764, 0.7963427338517791, -0.4389408208069267, -0.5128245027114487, -0.09477147301680997, -0.02033877220959933, -0.04980198961448026, -0.3428364170445801, 0.7438558676688828, 0.09313154210890842, 1.4564825011550746, 2.5021244351049026, -0.6053786485539445, -1.2846389478105142, -0.9124983044565133, -2.0552956438582997, -1.9210263277979605, -2.456532898146706, -2.2210764753873393, -1.5977140594470316, 0.22654475622442555, 0.3958118094268433, 1.2893167308084308, 1.020334124692844, 0.529838069518126, 0.6950748843512361, -1.0311121244072545, -0.41849076390333756, 1.109592822901439, 1.2286223775324308, -0.39697526947360473, -0.4257165516585056, -0.05799842802427444, -0.005318740587590763, -0.033840717999496936, -0.14967845355132212, 0.558348944065821, 1.6672935006279808, 1.4584315801566519, 2.3919967750743196, 0.6673428845435058, -0.29662756847661453, -1.4446258408145531, -0.5417044947332291, -0.023895527647793374, 0.36243732870856554, 0.4747371868544107, -0.032650331513162156, -0.2288944181316368, 0.5461267879538547, 0.9567449302426037, -0.4586276130508568, 0.06996721671430893, 0.5026137563044488, 0.08899896473219841, 1.1055801358780686, 1.3922046829337573, 2.4460162201906135, -0.05570398836096939, -0.07303373008854143, -0.09693247667902746, 0.05427614764638128, 0.031400258726934235, 0.42893952564554183, 0.6483214092846378, 2.55955815029544, 0.37461692953087755, 1.6583406814192378, 0.37859300087746106, 1.677069492595676, -0.6259069145859888, -0.4280539723143978, -0.4109761191097565, -0.4443081046559594, -0.4066478256859062, 0.33446062135700105, 1.0605044733347107, -0.5599951775886077, -0.4372109928588746, -0.775113101100085, -1.4092429108702538, 0.1684219929087125, 1.3555722642188808, 0.4428029622360736, 0.8751361948522559, 1.5293429440751811, 0.17478099137954395, -0.4241101106700741, -0.06532564802064163, 0.0001655578768074567, 0.0035797196973218065, 0.3046315441241254, 0.9189931268257312, 0.6978564376922749, 2.3205834533169787, 0.38079121377341857, -1.1260456117006112, 2.0804045558124638, 1.078125788840618, -0.4784017406403026, 0.6434771313113063, -0.12273685461931043, 0.41338491622395224, -0.1602921451570737, -0.21132890250124464, 1.8992098199385612, 0.9359633356656515, 0.9933618188003299, 1.4046677373475904, -0.619492802735081, -0.8256695869080362, 1.4837454429205787, 1.0170478398033085, 0.3432500055106932, 0.9334411784010994, -0.0032146293825627893, 0.022257769051461623, -0.004106863493458547, -0.008599133407945977, -0.13512291269032353, 0.743522608091937, 0.5308256982107546, 1.0543816626311602, 1.6283324736559486, 2.1202486913295258, 1.042849880360791, 1.2781675946731592, 0.30283510291402194, 1.439755001896996, -0.016889730929619193, 0.9304965682853136, 1.843332783614159, 0.6310167218339061, -0.5609866820242271, 1.0754376214010641, -0.01864548728226019, 0.049443280114405776, 1.6329741216835594, 1.4951528348658507, 1.2965934113775728, 0.9529613910906622, 0.9935857939891303, 0.7378579301098379, 0.053581225859555937, 0.021640110225213616, -0.03132076363002827, -0.052297746290270154, -0.07715653458579119, 0.04006647372943423, 1.3249693344115883, 0.13892474978752664, -0.6890760185612722, -0.2047815876676115, -0.9925802454597528, -0.6354546183643611, -0.5212469709204793, 1.1397742130964568, 1.5063409071787104, 0.16648302584304112, 1.1244770653374299, 0.25056580720259014, 2.07504422486475, 0.10640835334789164, 1.1176763658968594, 0.5915418990443982, 0.68624038804263, -0.503269999682492, 0.32146198899571593, 1.5936596818714874, 1.0860643468826687, 0.650600151161249, 0.18418312983089394, -0.023011837699755393, 0.036534722280836665, -0.0436225237565059, 0.06972075121640407, 0.0278911802859676, 0.9825349106130334, 1.7206316450204213, 0.45468225084760083, -1.5902128346937139, 0.8916768311874173, 0.6108033862794827, 0.9855080199254159, -0.25679620386537694, 1.4815425531941258, -0.46427031540664754, 1.125214931965022, -0.2660825981737197, 0.7341305417002205, 0.62509362586409, -0.627343623658381, -0.1847187061303955, 0.9300135345559154, -0.43287025552654823, 0.9615322223488073, 0.9497520181888974, 0.7834768665142129, 0.3880932223368932, 0.06626437753141705, 2.3131803861521638e-05, -0.029555475991606545, -0.03248847918220306, 0.011513043352589028, -0.01643018421022434, -0.055709920554989564, 0.8814328082984051, 0.15232941439348108, 0.22153267490332967, -0.02831348957193383, 1.0300319504906237, -0.11069051607397976, 1.4339906657312789, 0.6045302280338742, 1.2908019720915411, 0.868799358344071, 1.3388125339349788, 0.24120084377712359, 1.766283957036525, 1.6734013903653768, 0.07764177800037944, 0.08940019559114934, -0.0049078987774108795, 0.9947731513771506, 0.5493169962191518, 0.7620557049785088, -0.037631545645966435, -0.02792345483781903, 0.033408891177008807, 0.012932071293923306, -0.04463462231912383, 0.02080145867712127, 0.11007510739712681, 0.14840538609803897, 0.10507816553310853, 0.46597884567238296, 0.922597037486195, -0.40326163392270514, 1.270428706627778, 0.2990362972232147, 0.30434965927967206, 1.5409847137011576, 1.9289055913298359, 0.06407677791412808, 2.4774619375670897, 2.4426525297457733, 2.88124281715851, 2.4260506132918698, 1.225296563616291, 0.40166469001227834, 1.6037981376464898, 1.7155115538869268, 1.2959304489440813, 0.6929257644497598, -0.04529692781870456, -0.053500243273119176, 0.01661694571491938, 0.03795184531100482, 0.031090185832775216, -0.05080924803920866, -0.024321038305706928, 0.017876979491981013, -0.007055128507822882, -0.23907181144721862, -0.7834644867153175, -1.1176526386788426, -0.6952323453779925, -0.2634626627847982, 0.14717658139481882, 0.030186839632147036, 0.4551595616388874, 0.5831801476525758, 1.357994581796751, 1.2558464639747868, 0.3165436798183256, -0.3291569623734702, 0.07606858305451844, 0.5994262339779179, 0.8264293897912434, 0.37896248058137083, 0.06670889610906178, 0.05477149850808585, -0.0035661604472587635, 0.0383399522120966, 0.040429478549522474, 0.05454905728382048, 0.004906985285307433, 0.00426313759882728, -0.0472180612214366, -0.04048213054573472, 0.047717187837304276, 0.03029225720654194, -0.040835845271165544, -0.03820017741863236, -0.027719963996853815, -5.504694096663404e-05, 0.05362970474453266, 0.047926087967965325, -0.001724853454027099, -0.10323477665497907, -0.049923193610473676, 0.04554451698561092, -0.043527191716731285, 0.05662977370298926, -0.004328221547284558, 0.030277447570210794, -0.012555974358636209, 0.03733016047904801, 0.05838103565673476, -0.005119558972346928, -0.05822086271613626, -0.05689685990682764, 0.044375140371823274], [-0.0383840878658854, 0.004769977726713712, -0.03627116325468077, 0.03187337676322026, 0.03753047697554829, -0.03568920387259761, -0.007587364521824735, 0.04385509961269031, -0.014480095294611604, 0.02224357213673188, 0.05497809947209739, -0.05753867184132645, -0.03706360089942029, 0.041439489819051475, 0.006516207675640429, -0.00032269603899292426, 0.028376602378395913, -0.018829083384740153, -0.04116913641360403, 0.04596364540310442, -0.05506160621029674, 0.0029198073139499736, 0.03063826447013225, 0.026353474717807704, -0.03153222785344498, -0.04955443349551641, 0.048268917341657336, 0.03591809049092218, -0.05403726630389861, 0.013785808182021339, 0.0455903288833331, -0.01033317972855504, -0.046829947547528325, 0.03283905837439108, 0.3083516574398747, 0.748440957528897, 0.7867657646105043, 0.21655268783820736, 0.115193029218817, 0.22340536348401754, 1.2388343996465567, 0.3782593748890809, -0.4993977265615893, -0.11640518679710815, 0.1957325403931275, 0.46032108988672493, 0.23061538690479055, 0.4115327122383552, 0.2697410952525141, 0.12609928376071947, 0.09748320919751463, -0.015241437601844501, -0.03630867789454876, -0.0108682297661305, 0.041677568490807976, 